a 0.085397 -1.054074 -0.101655 -1.607124 -1.304213 0.931767 -0.222845 -1.073333 1.068399 -0.284140 0.876235 0.484942 0.043813 -0.454595 -0.674168 -0.583785 0.912397 -1.753377 -0.993263 -1.122641 1.063691 0.712285 -2.152024 1.023754 1.781791 1.735415 -1.743575 0.053763 -0.258068 2.463386 -1.522987 0.959921 0.625616 -0.300214 1.460592 0.698331 -1.327055 -0.535936 -0.468028 0.034504 -0.847159 -0.758073 -1.054265 -1.078913 -1.841205 -0.864007 0.656823 -0.137920 -0.416468 -0.120242
w 1.731656 -0.541023 0.324743 0.245681 0.117556 -0.211860 0.785174 0.177812 -0.232287 0.807021 0.902923 -0.129563 0.458016 -0.066568 0.851278 1.322515 1.075914 -2.015206 0.056933 0.424161 -0.565200 0.853211 -0.175207 0.078142 2.073733 2.097815 -0.043248 0.268084 0.723869 -0.015114 -1.791247 1.721791 -0.814333 0.976621 1.456870 0.935574 -0.247914 -0.185251 0.245800 -0.868227 -0.712713 0.422656 -1.777525 0.384519 -0.096708 -1.899276 1.365513 1.024730 1.023651 -0.765170
pracy 0.595262 -0.092505 -0.694135 -0.268383 0.632134 0.594990 0.242596 1.192169 -0.323323 -0.631197 -0.103031 -0.367424 0.464527 -1.002441 -1.339116 -0.005889 -0.568690 -1.002011 0.376680 -0.552193 1.257155 -0.279967 0.088194 1.006984 1.239113 -0.338173 0.470798 1.329737 0.850940 0.915028 -1.137128 0.130261 0.080442 2.475396 0.932266 -0.610774 -0.247860 -0.960550 -0.471564 0.137367 0.775947 -0.285732 -2.088848 -0.321013 -0.367782 -1.247204 -0.609088 -1.611858 -0.976979 -1.836152
aplikacji -0.431607 0.492495 -0.589494 0.682645 0.250708 1.525169 0.452497 1.059498 -0.014805 -0.014138 0.725863 1.053091 1.370109 0.394613 -1.729689 0.182207 -0.245596 0.508974 0.781138 0.118931 -0.027387 -0.125217 0.263085 0.050385 1.203054 1.171789 -0.037107 -1.852792 0.057486 -0.277347 -0.135701 1.137610 0.644025 0.329697 -0.107453 0.017316 -1.575135 0.610332 -0.450221 -0.246604 -0.388864 -0.183710 -0.846454 -0.816834 -0.598777 -1.224801 -0.807638 1.396728 0.057729 0.436190
kodu 0.712146 -0.477577 -0.718466 -0.494839 -0.263211 -0.591387 0.854738 1.047077 1.023482 1.246649 -0.206688 0.571640 -0.296103 -0.726311 -0.143187 1.057638 -1.342078 -1.029070 -0.309232 -1.195833 1.178917 -1.434190 0.637939 -0.296296 -0.244051 -0.055911 -0.219426 -1.276694 0.003493 0.090929 -1.071212 0.882920 1.001396 1.381985 -1.030598 0.710216 -1.668836 0.974168 -0.021098 0.673160 0.388380 -0.384160 -1.238928 -0.574271 -0.059329 -1.572187 0.787235 0.334042 0.258650 0.310763
więcej -0.316481 -0.476880 -0.364157 -0.271672 0.219201 0.607736 0.219217 0.812260 0.629280 1.014437 1.191439 -0.515822 -0.256208 -0.442411 -0.962034 0.007318 -0.181496 0.193566 -0.967226 0.259859 1.265909 1.054103 1.021405 0.187093 0.631918 0.573554 0.440184 0.312555 0.629871 1.376618 -0.874985 0.134343 -0.370538 1.240114 0.273370 0.424187 -1.134137 -0.693724 -0.265699 0.033372 -1.025276 -0.086516 -0.393322 1.256547 -0.549134 -0.672565 0.010743 0.237759 0.836968 -0.990086
kod -0.199923 0.174302 -0.074992 0.525293 -0.382619 0.158398 1.299130 -0.901377 -0.345529 0.721198 0.190025 1.695561 0.173794 0.021305 -0.986391 -0.198685 -0.539664 -0.352648 0.528392 -0.272565 0.531434 0.299684 0.153091 -0.635875 -0.094925 0.569850 -1.238111 -1.433495 0.442887 0.048386 -1.337296 0.880863 -0.645870 0.495005 0.480730 0.090051 -0.194206 0.168792 -0.830065 0.123575 -0.494941 0.189531 -1.501625 0.312048 0.777682 -0.287354 -0.588602 -0.124877 0.538680 0.612924
nie 0.825530 0.336809 -0.620927 -0.988818 -0.751258 -0.036651 -0.091105 -0.820922 0.551158 0.475507 -0.280280 0.438077 0.183647 0.378279 -0.121214 -0.167778 -0.031098 -0.059287 0.198905 0.023913 0.468752 0.317186 0.357490 1.140912 0.847495 0.048025 -0.891294 -0.204000 0.285403 1.610416 -0.657756 0.479369 0.653136 0.913987 1.601611 0.787034 -0.145654 1.240906 -0.558442 0.129267 0.821644 0.172561 -0.372104 0.591457 -0.330174 -0.233818 -0.130889 0.319193 0.558123 -0.768623
to 0.051154 -0.096830 -0.515112 0.320393 -1.505981 -0.810189 -0.456381 -0.630920 0.319487 1.004983 0.172291 0.343826 0.653990 -0.447663 -0.568270 1.024015 0.880482 -0.596629 -0.115972 -0.863967 -0.034873 -0.909107 -0.224198 2.476118 0.567133 -0.442511 0.021271 -0.847702 0.643850 0.207917 -0.071489 0.234268 -0.465145 1.038458 0.545887 0.534552 -0.310076 0.071830 -0.266290 0.347593 0.479920 -0.292756 -0.069932 -0.189492 0.171480 -0.890976 0.656951 -0.003094 -0.488047 0.164708
czas 0.177106 -0.254065 0.285228 0.386912 -0.735180 0.014593 0.297558 0.373736 -0.429199 1.197375 -0.751459 -0.341743 -0.780907 -0.294695 -0.999006 -0.917074 -0.158568 -0.165076 -0.322840 -0.193609 -0.116770 -0.841783 0.468801 1.604721 0.525699 0.553070 -1.550971 0.883612 -0.497512 0.146570 -1.170019 0.023119 1.074234 0.863581 -0.604260 -0.250294 -0.879858 -0.084228 -1.036256 0.014419 -0.295228 0.287506 -1.605543 0.642520 0.460070 -0.239963 -0.592659 0.647796 0.554024 0.993284
jeśli 0.165248 -0.258624 -0.311055 0.796638 -0.805602 0.762999 0.589610 -0.563360 0.342161 0.554002 0.630310 0.902444 -0.952086 -1.211002 -0.286596 1.114192 0.657652 1.169678 0.013058 0.597751 -0.240324 0.548799 0.828324 0.585957 0.014584 1.012186 0.070337 -0.446327 1.144035 0.838942 -1.057550 0.240197 0.276136 0.059624 -0.391988 0.391160 -1.825717 0.003389 -0.101483 -0.099805 0.566332 0.152974 -0.125531 -0.275347 -0.396603 0.378577 -1.017769 0.377337 0.342561 0.355904
możemy 0.763266 -1.358558 0.275205 0.903479 0.049784 -0.826254 0.113233 0.561738 -0.159378 0.909392 2.127041 1.504804 -0.206687 -0.206284 0.001386 -0.701187 0.414129 -0.694656 -0.324966 0.002045 0.602099 0.424501 0.043578 -0.797777 1.321047 -0.128582 -0.182790 -0.103038 0.098364 0.519723 0.153528 0.949885 0.323659 0.801699 0.372007 0.120690 -0.083171 0.459280 -1.221804 1.222208 0.032605 0.414078 -0.297047 0.733440 0.132147 -0.800787 -0.784863 0.757034 -0.278748 0.200602
jak -1.025954 0.283502 -0.440463 0.328697 -0.709447 -0.599655 0.215425 0.522350 -0.411710 -0.204685 1.264169 0.890374 -0.979787 -0.122213 -0.390419 -0.134368 1.095237 0.508736 -0.335756 -0.765563 1.025670 0.178035 -0.007422 0.541889 0.394194 0.550920 0.044273 0.674713 0.593161 0.398889 1.128648 -0.413170 0.641100 1.030892 1.147422 0.457787 0.198288 -1.355946 -0.366980 0.209520 -1.061543 -0.487922 -0.882035 -0.134889 -0.375509 -0.617788 0.411825 0.679161 -0.316842 -0.050336
danych -0.717449 -0.753754 -0.661427 0.967055 0.566625 -0.399090 -1.217042 -0.189010 0.248643 1.677458 1.474586 1.019897 0.298772 -0.377065 -0.988325 1.270079 0.050608 -0.518513 -0.762033 0.127653 0.210362 -1.404560 0.302345 -0.522991 0.631247 1.323308 -0.110001 1.186650 -0.153964 -0.210504 -0.411642 -0.347988 0.429482 -0.264576 -0.106276 1.024483 -1.416426 0.559528 -0.755237 -0.314773 -0.200710 -0.040904 -0.693814 -0.162132 -0.753439 -0.159714 0.356529 -0.224879 -0.290445 -0.208127
na -0.527530 0.785141 0.037531 -0.255042 -0.220323 0.601394 -0.049306 -1.272418 -0.386939 0.150205 -0.126075 -0.188752 0.309501 -1.168933 -0.190124 -0.235956 0.848299 -1.141256 -0.237072 0.253966 0.244925 -1.400563 -0.267538 -0.238373 0.770453 0.430726 -0.010059 -0.663187 0.664168 -0.327032 -0.306157 0.571987 0.427677 0.644068 0.921143 -0.570061 -1.288459 -1.058259 -0.310955 -0.282108 0.690780 -0.086558 -0.392161 -0.929893 -0.277474 -0.706117 -0.419288 1.623341 0.053758 -0.625704
warto 0.107526 -0.029519 0.029704 1.073288 -1.214634 0.870072 -0.405009 0.497392 -0.245802 0.179701 0.451739 1.090208 -0.421439 0.019602 -0.134337 -0.280712 0.802222 -0.011630 -0.109484 0.436870 0.799764 -0.557460 1.366907 0.459148 0.266714 -0.782127 0.016406 -0.176462 0.200727 0.812804 -0.504096 0.915679 1.251254 -0.495390 0.759468 -0.292062 -0.647788 -0.455422 -0.725584 -0.613486 1.124694 0.609161 -0.847276 0.957032 -0.592742 -0.788789 -1.272679 -0.350060 -0.346761 -0.279490
czasu 0.031507 -0.089963 -0.232390 0.386237 0.790028 1.096639 -0.647832 -0.778495 0.410883 0.470381 -0.586706 -0.641229 0.033070 -0.435327 0.381538 -0.874524 0.183617 -0.432987 -0.429251 0.408632 0.722401 -1.071646 0.361795 1.159484 -0.156303 1.259791 -0.713137 -0.772783 -0.088416 0.801488 -0.309657 -0.344058 0.126073 1.854096 -0.226000 -0.093281 -1.660420 -0.482822 -0.667484 0.417620 -1.173224 -0.011416 -0.037319 0.706196 -0.577017 -0.485870 -0.735699 1.240225 0.501685 -0.703243
odpowiada -0.972542 0.716969 0.404037 0.270716 -0.347991 0.096163 0.312017 0.759510 1.470414 0.089759 -1.381744 0.428972 0.712461 0.538976 -0.353574 1.107339 0.611490 -0.802608 -0.551891 -0.999058 0.862791 -0.206933 0.729514 0.610513 0.327867 -0.326182 0.725616 -1.438872 -0.112230 -0.040002 -0.680615 0.556082 0.237594 -0.360174 0.107807 1.009190 -1.235908 -0.585451 0.008268 -1.511451 -0.603763 -0.073965 -0.411109 0.149053 -0.746793 0.076221 -0.813992 1.318131 0.334502 -0.493551
wiele -0.046668 -0.418124 -0.122692 -0.526337 -0.244339 -0.629622 0.538380 0.754062 -0.011978 0.549316 1.030018 0.075175 -0.054008 0.773989 0.175384 0.344531 -0.363580 -1.487988 -0.314764 -0.863746 -0.422741 -0.261255 0.447326 0.121240 0.243544 0.378344 0.722667 -0.016594 -0.061920 0.894666 -0.605258 -0.725146 1.298851 -0.245968 0.758967 -1.119416 -1.283079 -0.635765 -0.104572 -0.644910 0.492723 0.881496 -1.146165 0.895529 -0.625021 -0.832323 -1.063653 -0.256509 -0.127592 0.398334
z -0.511033 0.201467 1.153106 0.234186 -1.138692 0.725320 0.291005 -0.256022 -0.947355 1.692559 0.377075 0.064410 -1.015455 -0.304413 -0.630641 -0.412676 0.034818 -1.574785 0.527376 -1.025959 0.230511 -0.256045 0.752712 0.536913 0.406813 -0.505147 0.097868 -1.351865 0.028191 1.134771 -0.482638 -0.517112 -0.129392 0.679329 0.597272 -0.395948 -0.398649 0.230894 -0.271764 -0.679698 -0.642249 -0.357141 -0.148643 0.971922 -0.711796 0.342370 1.011385 0.264224 -0.353242 -1.126160
temat -0.655403 -0.178506 -0.342992 -0.501218 0.143127 0.348735 0.608996 0.781215 0.350610 1.064965 1.215902 -0.193793 -0.455504 -0.617653 -1.269804 0.204972 -0.152975 0.609739 -0.833261 -0.002430 0.887907 1.094569 1.007106 0.424249 0.387298 0.704979 0.561390 0.495021 0.767852 1.160005 -0.535538 -0.447870 -0.195405 1.208795 -0.019039 0.140889 -0.871023 -0.463607 0.124049 -0.272258 -0.952888 -0.623311 -0.717767 0.646172 -0.187030 -0.352396 0.249365 0.121391 0.161712 -0.723779
przypadku 1.050361 -0.596968 -0.430554 -0.090088 -0.186830 -0.376707 -0.172914 0.142714 -0.569452 0.921834 0.057389 0.171937 -0.130857 -0.461967 -0.344003 0.748090 0.461866 -0.840785 -0.029652 0.194963 -0.888943 1.045140 0.562060 -0.642565 0.668981 0.616139 -0.222246 -0.724101 0.569491 0.225839 -0.568342 0.592390 0.794469 0.133741 1.625653 -0.402781 -0.144347 -0.613127 -0.079146 -0.382789 0.649952 -0.295151 -0.839680 -0.220037 -0.052449 -1.587799 1.130511 0.133260 0.663087 -0.325887
bardziej -0.241908 0.473322 -0.906813 -0.640141 -0.383459 1.092257 0.328688 0.118377 0.622896 -0.546446 0.524593 0.272305 0.859304 -0.657512 -0.436155 0.133939 0.757066 0.225112 -0.276559 -0.759948 0.928548 0.592814 0.318835 0.815315 0.493904 -0.423138 0.600053 -1.381265 1.112935 0.208569 -0.792169 0.396892 0.161335 -0.147607 0.610708 -0.317516 -0.717839 0.192798 -0.662782 0.388078 0.382189 -0.253636 -1.003942 -0.487464 -0.590516 -0.058869 0.242312 0.211990 1.564367 0.356150
pracę 1.368995 -0.339170 -0.550749 0.437769 -0.436639 0.531628 -0.041421 0.901537 0.004897 0.402688 0.096045 -0.182481 -0.646173 0.708123 -0.143958 0.134187 -0.403273 0.262825 0.831843 -0.972678 0.123855 0.396629 -0.536569 0.650169 0.570416 0.717309 -0.377274 1.033747 0.801062 1.620985 -0.547967 -0.756555 0.442579 1.437395 -0.524323 0.142011 -0.594663 -0.581658 0.133339 0.363268 0.785833 0.166390 0.151424 -0.741035 -0.459654 -0.337204 -1.099900 1.167031 0.453338 -1.009762
dzięki -0.184850 0.128306 -0.972318 -0.130703 0.133188 0.187658 -0.385493 0.337454 0.223028 0.415303 1.076828 1.628999 -1.276339 -0.305664 -0.859749 0.491506 0.866053 -0.240366 0.204766 -0.601619 0.233746 -0.204044 0.183654 -1.033333 1.328636 0.338078 -0.605414 -0.354867 0.066276 0.095261 -0.734730 0.623396 0.073115 0.410100 0.626939 -0.367073 -0.761881 -0.143053 -0.301319 0.061746 0.056656 0.092010 0.544982 0.150582 -0.084308 -0.461659 -0.113742 -0.701726 -0.904773 -0.373811
należy 0.645010 0.295644 0.339037 1.118774 -0.753260 0.979243 0.059303 0.638083 -0.720951 -0.262741 0.799931 0.885948 0.252487 -0.523372 -0.489819 0.409690 0.024765 0.255728 -0.257804 0.573010 1.148917 -0.093292 0.386490 -0.085825 0.389529 0.308320 -0.425700 0.789328 -0.106378 0.134019 0.225234 0.951908 0.603423 0.181973 -0.998145 -1.139709 -0.977884 -0.541556 1.098048 0.296940 -0.136664 -0.225248 -0.807103 0.206932 0.589259 -1.141344 0.083293 1.091332 0.422409 0.366328
firmy -0.613184 -0.484356 -0.063474 0.022885 -0.086082 0.645926 -0.092864 -0.549784 0.328083 0.432210 1.177572 0.552343 0.534193 -0.699585 -1.076587 0.322685 0.363639 0.590838 0.518998 -1.036108 1.047735 0.084209 -0.098014 0.775324 0.936518 -0.220097 0.377966 0.231182 0.544399 0.005525 -0.478406 0.112562 -0.577949 0.284851 1.472125 -0.280570 0.277406 -0.291374 -0.142262 -0.519069 0.406679 0.492007 -0.794292 -0.414244 0.230475 -0.240192 0.737598 0.137577 0.359028 -0.498687
po -0.716484 0.488090 -0.133379 0.218171 -0.170051 0.155356 0.033653 -0.038780 -0.717201 -0.139557 0.047165 -0.107402 0.290974 -0.218176 0.296124 -0.269944 -0.445005 -0.561635 1.106515 -0.187177 0.079415 -0.538035 -0.195283 0.069448 0.917567 0.935970 -0.602464 0.505530 1.365081 0.626305 -0.041523 -0.158320 -0.319676 -0.356769 0.869363 0.835127 -0.058591 -0.981830 -1.546769 1.171351 -0.950891 -0.805691 -0.966012 0.777972 -1.212547 -0.320439 -0.050179 -0.253744 0.171779 0.146746
co -0.089929 0.513289 -0.864567 0.144348 0.192011 0.032696 0.539477 -0.126813 -0.117846 1.021340 0.922423 0.287071 0.056833 -0.097405 -1.111730 0.149653 -0.084501 -0.242504 -0.063572 0.214266 0.315564 0.512893 0.450152 1.437426 1.516887 -0.126155 -0.421943 0.797946 0.146979 0.437645 0.073346 -0.094161 0.294197 0.798463 0.517954 0.398768 -0.020528 -1.458008 -0.973458 -0.170230 0.499764 -0.111685 -0.069786 0.874805 0.399996 0.051477 0.406138 0.368088 0.838683 -0.084658
rozwiązania 0.192441 -0.040819 -0.835185 0.292576 -0.001040 0.504785 -0.542818 -0.362947 0.530346 0.714162 0.545363 0.254556 0.430964 0.187413 0.196461 0.307087 0.773401 0.194324 0.286810 -0.503850 0.680034 -0.228498 0.656934 -0.033031 -0.036137 0.386162 -0.932740 -0.238744 0.996883 0.379662 -0.398612 0.033207 0.636732 -0.657575 0.848956 0.211465 -0.084065 0.459549 -0.920634 1.465386 0.225750 -0.179313 -1.123125 0.515520 -0.320677 -0.883606 0.665541 0.106661 0.225644 -0.162256
jest -0.116037 -0.568636 -0.167406 0.612356 -0.632372 -0.374256 0.063013 -0.222066 -0.078012 0.568721 0.603747 -0.550762 -0.041564 0.328470 -1.414876 -0.003828 -0.294811 -0.349460 -0.898729 0.731427 -0.078166 -0.116473 0.066523 0.326331 -0.555443 0.616318 0.655375 0.296557 0.570755 0.237053 0.215373 -0.076598 0.279802 0.159696 0.912477 0.081740 -0.567784 0.453572 -0.020218 0.843463 -1.112405 0.117476 -0.864156 0.168742 -0.270605 -0.895975 0.843014 -0.382583 -0.219298 -0.501757
osób -0.101275 -0.539633 -0.231439 0.259997 -0.864101 -0.005861 0.359134 -0.001558 -0.154968 0.788565 1.365649 -1.016224 -0.002413 1.034645 -0.024221 0.192483 -0.268837 -0.899670 -0.923301 -0.039179 -1.091473 -0.524685 -0.315106 1.070571 -0.627204 0.904195 0.820267 0.136598 -0.300833 0.906163 -0.383084 -0.586090 0.529027 1.040444 0.810124 -0.627256 -0.397989 -0.450379 0.522337 -0.470092 -1.102210 0.216920 -0.829721 0.809623 -0.565088 -1.118809 -0.031879 -0.104481 0.045027 0.370043
developer -0.317528 -0.057950 0.392016 0.890867 -0.320665 0.377442 0.679809 0.723648 0.670622 0.447837 -0.677106 -0.300576 -0.258560 -0.013459 -0.959236 -0.145383 -0.537407 0.360740 0.523663 -0.995048 1.512591 0.054822 -0.723695 -0.030673 -0.251914 0.491731 0.714312 -0.905814 1.465680 1.005055 0.186151 0.259647 0.603295 0.020603 1.226490 1.497462 -0.738043 0.064533 -0.499239 -1.444443 -0.026691 1.010372 0.093186 -0.478917 0.049094 -0.312768 -0.252675 0.926293 -0.506710 -0.091386
it 0.088273 -0.521732 -0.529082 0.147614 -0.007652 -0.186945 1.533078 -0.826670 0.056636 0.040606 1.335055 -0.566741 0.101988 -0.568563 0.135980 0.359153 -0.194438 0.121003 -0.266030 -0.230449 0.278078 0.580862 -0.623852 0.486828 0.599357 0.740541 1.054319 -0.648541 0.786247 1.004298 -0.475982 -1.280377 0.688261 0.576546 0.101604 -0.471072 0.421136 -0.737872 0.145567 -0.136977 1.010947 -0.608895 0.728860 -0.857896 -0.632627 -0.811827 -0.594967 0.667682 0.721561 0.620044
programowania -0.265597 0.979778 -0.206862 -1.169955 0.110321 -1.078583 0.143852 0.164758 1.081271 -0.372366 -0.578725 -0.237246 -0.512826 -0.036270 -0.388682 0.752087 -0.461358 1.002886 0.019304 0.625412 -0.759253 -0.445595 0.934769 0.222143 0.870108 0.740061 0.660630 -0.744653 0.860218 0.497352 -0.546494 0.364924 0.529622 -0.305686 1.600349 0.913347 -1.140301 -0.819046 -0.082069 0.881259 -0.080898 -0.022867 -0.346030 0.169035 -0.806114 0.072761 0.195683 0.245970 -0.250788 -0.647486
ruby -0.624526 0.643256 -0.176337 -0.541453 0.358067 0.121292 0.703745 0.790300 0.477046 0.519288 -1.162318 0.064068 0.406232 0.475535 -0.412382 -0.096176 -0.423990 -0.423331 -0.106431 0.117444 -0.370325 0.408936 -0.346634 0.603141 -0.041964 0.156412 1.170223 -0.786208 0.550983 -0.374356 -0.310566 0.227962 1.092844 -0.150273 1.360356 1.183703 -0.980764 0.089348 -0.276686 -1.014432 -0.129774 0.781122 -0.464610 0.245995 -0.751117 0.092889 0.002539 0.611968 -0.771705 0.274130
innych 0.350014 0.014527 -0.314871 -0.164971 0.515764 -0.093871 0.540145 0.282445 -0.221640 1.072101 0.130479 0.067490 -0.030298 0.304269 -0.365606 0.013746 -0.653783 -0.946330 -0.577227 -0.496877 -0.289450 -0.791739 0.017696 -0.138619 0.101056 -0.166368 0.004971 -0.102378 0.434281 0.139436 -0.342254 -0.043122 0.824457 0.291100 0.772624 -0.995664 -1.409853 -0.374248 -0.398772 0.078036 0.506181 0.235139 -1.254604 -0.098510 -0.498602 -1.251726 -0.056405 0.526217 -0.283233 0.023792
projektu -0.105723 -0.700187 0.172168 0.118147 -0.667874 0.302605 -0.059307 0.261146 0.233120 -0.251524 -0.223649 0.005820 -0.534389 -1.206824 0.037035 0.522081 0.503354 -0.097252 0.790494 -0.837231 0.389944 -0.835246 -0.304663 0.762631 0.486189 -0.015285 -1.414250 -0.759511 -0.045422 -0.380654 -1.260320 0.294122 0.018022 0.377050 -0.827249 -0.609580 -1.289421 -0.480427 -0.862895 0.197637 -0.130816 -0.312893 -0.166505 0.006391 0.152687 -0.850297 0.216415 0.480102 0.898588 0.296145
com 0.178415 -0.231021 0.354360 0.240523 0.506497 0.666041 1.245062 -0.435988 0.123422 1.178694 0.083522 0.184156 0.352668 0.001037 -0.467954 -0.140281 0.452046 -0.345079 0.593764 -0.280132 0.491280 0.823991 -0.996110 0.508863 -0.630501 0.612809 0.322474 -1.133563 0.774793 -0.243184 -1.059647 -0.051173 -0.268381 0.323131 1.503015 0.515768 -0.558952 0.995649 0.606037 0.224087 0.429021 0.903691 0.740879 0.330522 -0.600104 -0.287262 -0.489303 0.431313 -2.096393 0.537523
czy -0.876082 -0.418559 -0.767757 -1.076843 -0.325993 -0.188580 -0.122881 0.439498 -0.351351 -0.035130 0.169544 0.317470 0.204442 -0.262658 -0.128946 0.663554 0.960351 -0.233758 -0.050709 -0.393449 -0.022308 0.139337 0.722472 1.193989 1.050547 0.371851 0.181517 0.581757 0.351163 0.190236 -0.107202 0.114347 1.222616 0.376525 -0.426651 -0.221082 -0.834261 -1.098455 -0.449375 0.185054 0.167876 -0.779090 -0.342942 -0.128765 -0.698797 -0.526862 -1.007038 0.653211 -0.109692 -0.320825
przykład 0.006731 -0.099882 -0.028512 0.793988 0.209577 0.354628 -0.373105 -1.346950 -0.377068 0.777495 1.634998 -0.018247 0.256047 -0.288405 -0.237521 -0.000821 0.379553 -1.056177 -0.603104 -0.248256 -0.310645 -0.848085 -0.226566 -0.754821 0.530999 0.252146 -0.148554 -0.469770 0.206831 -0.645422 -0.287135 -0.245092 0.280170 -0.089114 0.628188 -0.260557 -0.597552 0.066536 0.041888 1.084792 0.857275 0.219269 -0.194021 -0.382111 0.272302 -0.157206 0.501174 1.082378 -0.752384 0.141830
pracowników 0.569224 -0.252575 0.219008 0.121978 0.173404 0.310383 -0.560792 0.512358 -0.475082 0.709023 0.666351 0.214408 0.556130 0.159798 -0.569975 0.016336 0.356290 0.208563 -0.197521 -0.401496 0.098054 0.307246 0.276727 0.939948 0.658494 -0.729700 0.374277 0.721123 0.419668 0.896945 -0.440883 -0.199449 0.328260 0.178469 0.825259 -1.064549 -0.574357 -0.589711 -0.592726 -0.343716 0.601444 0.582956 -0.737959 0.202089 -0.103404 0.257597 0.550860 0.195948 -0.187867 -0.260580
wielu 0.150402 -0.048896 -0.843935 -0.525984 -0.257319 0.080193 0.481461 0.186469 -0.828605 0.299795 -0.086525 -0.035362 -0.335449 0.646669 -0.265817 0.192656 -0.304210 -0.723602 -0.800791 -0.434973 -0.576758 0.176389 -0.330444 -0.728204 -0.264195 -0.057290 0.066338 -0.190038 1.002256 0.817198 0.495109 -0.790065 0.605167 0.516906 0.399155 -0.723533 -0.755281 -0.124349 -0.503142 -0.704159 0.738535 0.151580 -0.915732 -0.330911 -0.495605 -1.274928 -0.454425 0.662539 0.075488 -0.689299
wszystkie -0.289474 0.756483 -0.204179 0.501906 -0.502800 1.277844 -0.627197 -0.553150 -0.711278 0.222173 0.622716 0.343868 0.170002 -0.319307 0.140357 0.245878 0.871477 -0.634760 0.393016 -0.611829 0.334751 0.038552 0.705884 -0.383283 0.719565 0.246715 -0.297868 -0.729261 -0.234690 0.099153 -0.070464 0.171361 0.701335 0.826117 -0.512631 0.596801 0.230922 0.302629 -0.707224 0.759655 0.461549 -0.533225 -0.439004 0.064719 -0.262644 -0.866572 0.604485 -0.276704 -0.002573 -0.333287
mieć -0.320835 -0.146939 -0.452214 -0.096112 -0.477701 -0.251942 0.150433 0.177336 0.005375 0.305475 0.155438 1.133842 -0.691223 -0.495204 -0.082167 0.243738 0.020928 0.650029 -0.010698 -0.281847 0.273143 -0.816786 1.239981 0.941468 0.813642 0.476906 -0.978236 0.056255 -0.580668 1.083949 -0.624239 0.602088 0.311463 -0.553605 0.002312 0.246638 -0.451677 -0.270929 -1.031896 -1.040118 0.259148 0.646125 -0.968976 0.752087 0.108740 0.312443 -0.643519 0.195782 0.728320 0.333550
strony -0.814740 0.729554 0.355381 0.328290 -0.835930 1.414292 0.360171 -0.599603 -0.893834 0.887498 0.296925 0.217731 -0.720367 0.145365 -1.376445 -0.111124 0.681427 -0.805954 0.864481 -0.868284 0.017513 -0.506082 0.797480 0.712987 0.705480 -0.100098 -0.109903 -0.862426 0.125635 0.116725 -1.328788 -0.117068 0.113461 0.129172 0.748897 -0.740799 -0.947240 -0.115414 -0.074504 -0.643490 -0.054784 -0.219318 -0.382101 0.573779 -0.573222 -0.029378 0.720888 -0.029108 -0.092350 -0.598894
kilka -0.075680 -0.656679 0.027137 -0.742508 -1.535064 -0.062022 -0.767541 0.107664 -0.156300 -0.241776 0.297888 -0.433712 1.028996 0.188616 -0.500705 -0.465691 -0.274581 -0.378184 0.425499 -0.370296 0.030714 -0.289584 -0.085675 -0.335621 -0.594431 0.608995 -0.028866 -0.245345 0.712155 1.458500 -0.127302 0.256296 -0.162178 -0.253125 0.379866 -0.412210 -0.206866 -0.423194 0.344565 0.520026 -0.172111 1.191236 -1.379465 0.447175 0.269493 -0.867566 0.030001 -0.434206 -1.233522 -0.534744
typu 0.471454 -1.302929 0.658395 0.956533 0.121026 0.228701 -0.080664 -0.341935 0.473311 1.023762 0.459073 0.211448 -0.343375 0.065469 -0.304134 0.566565 1.000065 0.022714 0.079820 0.600506 -0.005045 1.555598 -0.341274 0.165621 0.611177 -0.091387 0.432264 -1.009298 0.411234 -0.590077 -0.457576 0.372750 0.886157 -0.136286 0.015620 -0.082935 0.143975 0.072397 -0.864892 1.093528 0.313087 -1.051010 0.630473 -0.215598 -0.967670 -0.966766 -0.155472 0.331106 0.451012 0.075250
złotych 1.267594 -0.300673 -0.162058 -0.038775 -1.494211 0.215101 0.201601 1.592190 0.582954 -0.642258 0.680493 -0.438929 0.837023 0.894495 -0.259064 -0.388859 -0.545332 0.602843 0.059048 0.463852 -0.210988 0.071775 -0.152692 0.652928 -0.569768 -0.301652 0.096574 -0.209721 -0.944368 1.466430 -0.664253 0.490149 -0.042063 0.583286 0.447203 -0.304852 0.711283 0.471332 0.906219 0.118496 0.087169 0.908007 -0.602454 0.068342 -0.536156 0.014845 -0.696925 -0.233495 0.657538 0.411399
php -0.376064 0.355638 0.655211 0.224042 0.209334 -0.336058 0.685573 0.758603 0.495842 0.484891 -1.333307 -0.182987 -0.248124 0.104776 -0.712798 0.654347 -0.337437 -0.121006 -0.085097 -0.754272 0.601243 0.078793 0.060878 -0.741590 0.347165 -0.193140 0.302626 -0.091313 1.072258 0.725999 0.098416 0.724749 0.687741 -0.870321 0.938512 1.140908 -1.258345 0.143113 -0.591043 -1.347672 -0.030750 0.639549 -0.946915 -0.162626 -0.073546 -0.139955 -0.091334 0.481372 -0.391538 -0.181567
podczas -0.543249 -0.403743 0.129763 0.603172 -0.732740 -0.212373 -0.184543 0.451022 -0.364836 -0.682801 0.182025 -0.990001 0.632233 -0.501122 -0.515098 0.002777 0.009970 -0.115168 0.210724 -0.387214 -0.447703 -0.538898 -0.642860 0.195798 1.050921 0.441779 0.120597 -0.133096 0.440029 -0.299471 -0.169406 -0.049090 -0.117746 0.505011 0.336858 0.198161 -0.032501 -1.006378 -0.631624 0.491439 -0.219704 0.368891 -1.226688 -0.280280 0.011157 -0.375824 0.273880 0.456203 -0.158601 0.266753
następnie 0.284750 -0.639881 0.102384 0.498547 -0.227774 0.298187 0.437203 0.330810 0.604161 -0.715994 1.345648 1.082882 0.380242 0.105754 -0.104424 0.129517 -0.160944 0.126362 0.047821 -1.043516 1.088021 -0.008139 -0.381978 0.182925 0.544495 0.445161 -0.525260 -1.037047 -0.156963 0.605111 -0.872047 0.384396 -0.553406 -0.559154 -0.735505 0.194476 0.750348 0.049247 -0.322911 -0.045111 -0.695660 -0.842323 -1.326003 -0.371723 0.109517 0.053975 0.473334 0.104586 -0.331987 -0.107609
projekt -0.619658 -0.280620 -0.014793 -0.198875 -0.543838 -0.272123 0.528399 0.243863 0.154723 -0.005976 -0.716425 0.653402 -1.197104 -0.500993 0.474725 0.074696 -0.074651 0.479382 0.753814 -0.656324 0.487873 -0.561930 0.140776 0.743348 0.079945 0.709960 -1.148456 -0.080504 -0.015835 0.398352 -0.038683 0.739640 -0.256076 0.961838 -0.300346 -0.026960 -0.059988 -0.141726 -0.738638 -0.145055 -0.508489 0.091941 0.450184 0.666332 0.709296 -0.394118 -0.075653 0.077937 1.312973 -0.511666
zespół -0.688686 -0.201935 -0.606141 -0.106803 -0.548188 0.202682 0.968216 0.287245 0.376464 0.744292 0.504353 0.304226 -0.740749 0.401516 1.033354 0.663215 0.218301 0.612789 -0.732174 -0.724086 -0.734287 0.236560 -0.457841 0.601319 -0.523952 0.732583 0.481500 0.695294 0.393187 0.105612 -0.554811 0.292091 0.140963 1.159565 0.533094 -0.093570 0.042690 -0.399992 0.219818 -0.320637 -0.757260 -0.529573 -0.434036 0.411695 -0.023978 -0.482046 0.051460 -0.280803 -0.055670 0.991641
programistów -0.403123 -0.375573 -0.618116 -0.088031 0.342668 0.473502 0.121853 0.494520 -0.242479 -0.127327 -0.290687 -0.068733 0.602920 0.540090 0.015570 -0.017276 -0.400790 -0.639103 -0.742621 -0.060326 -0.807740 -0.024332 -0.414516 -0.047489 -0.579737 0.311528 0.416537 -0.418644 0.736132 -0.085964 -0.180687 0.391938 0.360366 0.664761 0.700551 -0.377772 -1.131632 0.356315 -0.841169 -0.337617 -0.348398 0.313702 -1.416408 -0.082532 -0.428915 -0.810079 -0.026290 -0.167177 0.019373 -0.000775
czym -0.534495 0.765571 -0.749699 -0.056982 0.100068 0.095047 -0.285470 -0.249936 0.468477 0.549592 -0.352246 0.044700 0.406078 -0.770120 -0.203566 -0.104868 0.125151 -0.110788 -0.103740 -0.177153 1.432216 -1.164665 0.103361 0.904972 0.207033 0.169288 0.654010 1.159554 0.093344 0.008130 0.715288 0.959627 0.536051 0.410485 1.074592 0.865634 -0.035733 -0.806605 -0.103870 0.262366 0.323086 0.527247 -0.387884 0.294780 -0.201515 -1.193128 0.702856 0.670470 -0.207008 -0.474446
oprogramowania 0.623949 0.149273 0.233022 0.485316 -0.241574 0.101003 0.207603 0.408005 -0.773540 0.375145 -0.302538 -0.260777 0.627534 -0.415412 -1.518039 -0.260367 -0.282596 0.446471 0.714760 -0.690107 0.664971 -0.849548 0.257453 1.112128 0.691307 0.258173 -0.884573 -0.386876 -0.220865 -0.440786 -0.301242 -0.291575 -1.026323 0.183248 -0.235242 -0.623500 0.008077 0.028217 0.495956 -0.278558 -0.317550 -0.228298 -0.886195 -0.918356 0.564858 -0.250200 0.704247 0.554779 0.684338 0.222920
senior 0.015454 -0.457184 1.150969 1.406833 -0.508464 0.498606 0.421756 0.756830 0.950307 -0.151377 -0.521894 -0.711755 0.205070 -0.190513 -0.007603 0.420857 -0.020721 -0.120999 -0.687910 -1.405680 1.524638 0.302794 -0.056800 -0.089581 0.168947 -0.514996 0.595131 -0.187783 0.360551 1.387619 -0.273898 0.333637 0.233549 -0.409678 0.796133 0.418196 -0.871558 -0.087996 -1.057750 -1.855313 0.116018 0.438262 -0.286567 -0.079962 -0.267489 0.138154 -0.841683 0.847149 0.388038 -0.183892
stanie -0.265307 0.179600 -0.463261 -0.844666 -0.038625 0.061824 -0.136093 -0.087050 -0.076068 -0.121494 1.035771 1.252695 -1.055368 -0.057955 0.020831 0.250445 -0.209874 -0.356284 0.907834 0.358065 -0.993741 0.391017 0.092270 -0.169226 1.277778 0.406692 -1.313521 0.169590 0.057646 -0.033226 -0.729313 0.369183 0.506768 0.264973 0.715674 0.512305 -1.012274 -0.197705 -0.360531 0.447664 0.600188 -0.192579 0.623559 0.102993 0.213800 -0.362950 0.347970 -0.274955 -0.185007 -0.245168
produktu 0.250254 -0.306860 -0.486650 -0.098218 -0.773734 -0.150744 0.287631 -0.171161 0.348276 0.074274 0.182186 1.030867 0.352448 0.341920 -0.081835 1.072452 0.322132 -0.036409 -0.249101 -0.241340 -0.078864 0.146697 0.319985 0.669108 0.000848 0.009078 -0.749358 -0.994067 -0.020174 -0.616881 -1.208081 0.458962 0.035206 -0.128077 0.128234 0.121124 -0.264491 0.472484 0.301701 -0.098218 -0.583710 -0.704876 -0.615819 0.116585 0.643251 -0.512815 0.122253 -0.256202 0.288284 0.275800
osoby 0.287951 -0.510636 0.495434 0.260338 -1.388976 -0.221631 0.662812 0.711388 -0.203815 -0.504156 0.542086 -0.666521 0.333161 -0.046969 -0.469233 -0.126853 -0.765568 -0.166755 0.247904 -0.155343 0.431916 -1.104433 -0.061954 0.162159 0.168409 -0.241481 0.236647 -0.074777 0.133167 0.460229 -0.497031 -0.039589 0.473960 0.939125 -0.288243 -0.115511 0.641399 0.011108 0.211891 0.153226 0.528235 0.745216 -1.307577 -0.283942 0.344008 -0.986688 -0.106465 -0.434412 0.627123 0.225747
proces -0.142628 0.132085 -0.334497 0.203716 -1.033560 0.153578 0.915207 0.915434 -0.442874 -0.339739 0.321844 -0.537885 0.179100 -0.581930 -0.993214 -0.106951 -0.227930 0.944568 0.310272 -0.759770 0.330002 -0.268237 -0.152623 1.578356 0.596595 0.684511 -0.714492 0.104403 -0.397660 -0.292764 -0.451309 -0.267631 -0.301811 0.300654 -0.580789 -0.316817 0.088938 -0.607638 -0.002712 0.063698 -0.204952 -0.472959 -0.743714 -0.302162 -0.288460 -0.499014 0.806382 0.785022 0.599383 1.367125
użytkowników -0.184057 -0.047353 -0.215497 -0.462597 0.295344 0.806016 -0.439916 -0.190339 0.044681 0.149269 1.207055 0.076635 -0.552043 -0.153396 -0.184578 0.226862 -0.508076 -0.074462 -0.921065 0.765531 -0.697065 0.113242 -0.541599 -0.252380 0.688945 0.364667 -0.423161 -0.054357 0.290006 -0.880224 0.315088 0.538291 -0.478651 0.681132 0.283273 -0.346999 -1.092809 0.981193 0.209782 -0.158627 -0.325160 0.050354 0.038877 0.069853 0.078900 -0.789702 1.094171 0.377519 -0.569558 0.384882
firmie 0.306883 -0.730544 0.069017 0.940739 -0.660965 -0.253481 -0.279379 0.435355 0.159325 -0.598822 1.054386 -0.005515 0.549919 0.132935 -0.810682 0.255328 0.424254 -0.426423 0.892240 -0.788348 0.695361 0.219289 -0.259320 0.533881 1.450906 0.416778 0.305108 -0.278862 0.204269 0.609559 0.143251 0.731665 0.008684 -0.288919 0.315017 -0.551718 0.859443 -0.794744 -0.239803 -0.066479 0.024911 -0.486748 -0.741665 -0.798260 -0.064824 0.110297 -0.138591 0.217893 0.373420 -0.895249
m 0.051197 0.312701 -0.480684 -0.814988 -0.498818 0.568124 0.716513 0.019015 -0.155364 0.645726 0.216680 0.256129 -0.963728 0.462669 -0.172003 0.417668 0.337613 0.509996 -0.530975 -0.083870 -0.012326 -0.113994 -1.024141 0.936866 0.207090 0.418871 0.623072 0.162099 0.730741 -0.244186 0.218961 0.795324 -0.287008 0.132331 0.803076 -0.147257 -0.310222 -0.430101 0.897695 -0.112260 0.676719 -0.066867 0.052100 -0.624035 -1.057098 -0.935127 1.059796 1.474526 -0.405715 -0.191251
nowych 0.832799 0.607863 0.577110 0.106720 -0.442638 -0.652472 -0.293323 0.867377 -0.213120 0.396691 -0.007122 -0.313310 0.479746 0.698916 -0.447158 -0.687865 0.097157 0.036076 -0.362506 -0.218089 -0.260398 -0.811644 0.299994 0.870610 0.852505 0.050951 -0.168616 -0.115940 -0.385383 0.661171 0.256000 -0.347640 0.849329 -1.066846 -0.090267 -1.058878 -1.220373 -0.804307 0.245330 0.725140 -0.829319 -0.079389 -1.241013 0.085875 -0.127140 -0.498474 0.762258 0.398178 -0.772525 0.780380
rekrutacji -0.509403 0.416474 -0.684012 0.164351 -1.092594 0.239018 1.265827 0.732503 -0.207019 -0.870686 1.163362 -0.773571 0.292467 -0.552876 -0.374034 -0.533134 -0.254890 0.766513 0.275949 -0.366639 0.471323 0.242435 -0.319919 1.093049 0.449577 0.652929 0.301126 0.351346 -0.532430 0.618124 -0.205839 -0.760726 0.037619 0.186909 0.653091 -0.423008 0.913373 -0.071105 0.489049 -0.120414 -0.140700 0.155896 -0.428651 0.472958 -0.865944 -0.149066 0.636203 0.646215 0.905019 1.016791
pytanie -0.794940 0.315965 -0.883062 -0.072184 -0.215184 -0.264990 0.191499 -0.064756 0.117796 0.394795 0.174663 0.100218 0.266213 0.044459 -0.269562 0.643569 1.011239 -0.663445 0.108291 -0.073441 0.483011 -0.330063 0.784003 1.431071 0.780677 0.622729 0.314665 0.596143 -0.022179 0.268602 0.134778 -0.732909 1.033893 -0.120486 0.224758 0.826882 -0.530375 -0.751545 -0.597003 -0.221369 -0.215731 0.025439 -0.072490 0.503723 -1.318596 -0.542370 -0.539441 0.600103 -0.003826 -0.022256
pomocą 0.388890 -0.234843 -0.009852 0.356136 0.278413 -0.251930 0.534852 0.569834 0.123422 0.246012 0.953985 1.220526 -0.144252 -0.169846 -0.107898 0.188861 -0.341451 -0.664652 -0.117706 -0.122977 0.096378 0.063065 -0.035819 -0.775651 -0.055834 0.006519 0.145843 -0.891091 -0.148074 -0.463301 -0.052989 0.308586 0.577395 0.020934 -0.129134 0.370713 -0.701988 0.578410 -0.131594 0.958448 -0.214802 0.395521 -0.716981 -0.196294 -0.111753 -0.746720 0.278259 0.448168 -1.545112 0.733889
wartość 0.388042 -1.711425 0.057630 0.503082 0.093783 0.120135 0.151158 0.789245 0.680185 -0.293376 1.327199 0.149361 -0.421054 -0.662439 -0.214436 0.088424 0.602566 0.873058 -0.506508 0.356121 0.019660 0.687528 -0.360483 0.102841 0.222547 -0.336178 0.796362 -0.203440 0.246569 -0.007757 -0.909113 0.637609 -0.220307 -0.151911 -0.185209 -0.051889 0.590982 -0.531278 -1.077889 1.373852 -0.372233 -0.835053 0.050624 0.321471 -0.056342 -0.379700 0.208927 -0.245647 0.312888 -0.641216
zespołu -0.142795 -0.551239 -0.590960 0.506506 -0.905207 0.499807 0.229189 -0.046217 -0.464612 -0.144618 -0.380002 0.446029 -0.570745 -0.393121 -0.008536 0.314124 0.234410 -0.038660 0.738912 -0.148329 -0.352055 -0.205395 -0.292622 0.214638 -0.433366 0.304134 -0.825555 -0.048256 0.592101 -0.213104 -0.736463 0.551485 -0.286316 1.068402 0.333681 -0.254968 -0.601672 -0.399856 -0.574470 0.076000 -0.232872 -0.221793 -0.582336 -0.094981 0.099284 -0.799798 -0.196065 -0.385532 0.416434 0.060428
działa -0.706472 0.222299 -0.586738 0.208259 -0.873196 -0.845795 0.697374 0.161197 -0.136691 0.134487 0.701810 0.943038 -0.942120 -0.174947 -0.111110 -0.096397 0.724572 0.006342 -0.353753 -0.167154 0.287675 0.000567 -0.008487 0.373782 -0.255566 -0.175890 -0.380383 -0.142372 0.361273 0.269243 0.961742 0.141244 0.348724 1.199352 0.562252 0.899452 -0.244879 0.226931 -0.446867 -0.178214 -0.662040 -0.387780 -0.334812 0.128220 -0.078751 -0.710806 -0.149816 0.315821 -0.320199 -0.001510
którą -0.102940 0.375398 -0.590213 0.242430 -0.562413 0.686748 0.556236 0.517424 -0.082455 -0.054539 0.575933 0.358850 -0.300786 0.090952 -0.280837 0.102899 -0.077517 0.627661 0.440410 0.285053 -0.113592 -0.663515 0.374297 0.504270 0.344720 0.463870 0.046300 -0.462236 -0.156927 0.627072 -0.438529 0.680250 0.139175 0.281613 0.335483 -0.201071 -0.218042 0.328602 -0.167650 -0.058421 -0.385644 0.086008 -0.678178 0.121237 -0.467668 -0.287497 -0.099595 0.029568 0.166885 0.260072
metody 0.452785 -0.216362 0.751185 0.772022 0.423388 -0.100620 -0.119553 -0.964380 0.095637 0.806829 2.138904 -0.277648 0.526145 -0.143446 0.092942 -0.452221 0.233968 -0.591848 -0.349023 -0.091927 0.533778 0.460413 -0.173642 -0.493937 0.536886 0.228390 -0.284385 0.022543 -0.583323 -0.429304 -0.096441 -0.185305 0.802577 0.044114 0.402554 0.152287 0.518602 0.405121 -0.734429 0.672657 -0.141181 -0.064282 -1.000771 -0.257796 0.674440 0.090734 0.881702 0.859535 0.964199 0.627144
problem -0.296673 -0.207408 -1.133567 0.033353 -0.431209 -0.013631 -0.242089 -0.517841 -0.211236 0.063584 0.136175 0.939056 0.083680 -0.446687 0.424720 0.290158 1.033093 0.119378 -0.113087 0.391536 -0.163715 -0.067578 -0.168434 0.346395 -0.159108 1.054101 -0.657957 0.239866 0.877820 0.436868 -0.534426 0.565915 0.019030 0.199620 0.099047 -0.524256 -0.280834 -0.066042 -0.284738 0.728588 -0.508455 -0.216965 -0.427726 0.416845 -0.169319 -0.195196 -0.249184 -0.294537 -0.074112 0.180805
software -0.157524 0.339204 0.392952 1.458698 -0.712016 0.129502 0.080528 -0.320366 -0.020639 0.182263 0.139574 -0.761527 -0.101952 0.603306 -0.319340 0.371303 -0.707051 -0.503479 0.306732 -1.081769 1.010267 -0.657213 -0.689538 -0.364591 0.570466 0.780989 0.785929 -0.769012 0.724844 0.368486 0.342761 0.459285 -0.428641 0.056869 0.242334 0.631292 0.461886 -0.703701 0.449216 -0.994265 0.678525 -0.319306 -0.524540 -0.985344 0.262245 -0.188633 -0.224348 1.266251 0.334168 -1.408360
czasie 0.621230 -0.170152 1.006096 0.096412 -0.164548 0.198278 -0.043201 0.546539 -0.305277 -0.217317 -0.316760 -0.721862 0.158437 -0.033080 0.440186 0.263121 0.305181 -0.508004 0.527208 0.510624 0.168928 -0.019938 0.760534 0.483257 0.688133 0.231828 0.580819 0.487842 0.074937 0.439284 -0.415165 0.129639 -0.139807 1.044611 0.662304 0.363843 -0.199981 -0.386455 -0.481190 -0.279509 -0.832119 -0.234368 -0.157971 0.786841 -0.365311 -0.192905 0.244707 0.291446 1.262063 -1.070376
dodatkowo 0.073636 -0.280293 0.236244 -0.034824 -0.159550 0.016870 0.158331 0.153638 0.167149 -0.321652 0.896658 0.030623 0.600418 -0.206747 0.055474 0.265430 0.017183 -0.594328 0.793413 -0.300172 0.712764 -0.022619 -0.147338 0.239551 0.946303 -0.319833 -0.272943 -0.530121 0.266790 0.218577 -0.466523 0.109817 0.525095 -0.348346 -0.370212 -1.120093 -1.009497 -0.420960 -0.073411 -0.288928 0.903484 -0.672329 0.046251 -0.291990 0.370264 -0.270500 -0.292280 -0.330909 0.634724 0.170619
oczywiście 0.328429 -0.199373 -0.648843 0.408769 -0.294466 -0.066391 -0.589383 -0.222398 0.079842 0.560059 0.249610 0.104933 0.253528 0.000738 -0.625204 0.191945 0.303598 -0.119411 0.535698 -0.501347 -0.354086 0.324430 0.552509 0.045505 0.018636 0.466588 -0.277555 -0.270261 0.804622 0.535820 -0.030464 -0.217813 0.434177 -0.015788 0.562261 -0.200466 -0.211544 0.347883 -0.194483 0.481669 0.537429 0.431980 -0.218922 -0.189092 0.163647 -0.989136 -0.008814 -0.373901 -0.460281 -0.471264
wszystkich 0.471898 -0.504894 -0.028029 0.051751 1.111324 -0.292738 0.402182 -0.349296 -0.174541 1.357375 -0.063091 0.345981 -0.021559 -0.003566 -0.849031 -0.368327 -0.184681 -0.520721 0.515796 -0.664813 -0.091871 0.344726 -0.536673 0.829040 0.040900 0.401027 -0.412308 0.700921 0.140191 0.520977 -0.638423 -0.781563 0.511942 0.127260 0.602055 -0.544425 -1.092491 0.275996 -0.366930 0.360710 0.348675 0.547285 0.198145 0.647503 -0.457006 -0.298851 -0.669839 -0.913535 -1.344417 0.678157
mniej 0.563323 0.000219 -0.559911 -0.863063 0.051250 0.561973 -0.122555 0.430566 0.318387 0.471539 0.243391 0.312424 0.054029 -0.449241 -0.383514 -0.383902 -0.077687 -0.061273 -0.775950 0.352768 1.092939 0.485055 0.511802 0.227932 0.010950 -0.106981 -0.186206 -0.089698 0.146670 0.548713 -0.347055 0.690455 -0.421846 1.154171 0.099643 -0.227706 -0.737697 -0.045693 -0.495740 0.699169 -1.056203 -0.141509 -0.308911 0.162853 -0.674124 0.111592 0.011201 -0.423075 0.992010 -0.042186
problemów 0.084998 0.164306 -0.663337 -0.249630 0.028545 0.653929 -0.400755 -0.035087 -0.488128 0.341481 -0.037880 -0.075108 0.089318 0.354331 -0.196038 -0.049637 0.756628 -0.342008 -0.451848 -0.321117 -0.243787 0.242911 0.706329 -0.039507 -0.119248 0.063071 -0.144745 -0.463066 1.120019 0.152870 -0.413148 -0.340814 0.044377 -0.066648 0.499829 -0.905392 -0.915269 -0.105809 -0.430964 0.260769 0.252305 -0.104393 -0.796557 0.503397 -0.659956 -0.549468 -0.031416 -0.070250 0.580465 -0.110766
zbyt 0.396396 0.480025 -1.032619 -0.711642 0.061950 0.515320 -0.384376 -0.886175 -0.663316 0.521102 0.077870 0.360645 -0.902443 0.290209 0.383566 -0.078008 0.383352 -0.798067 -1.162472 -0.137578 -0.907489 -0.104175 0.642010 -0.359601 -0.426259 0.660730 -0.033002 0.154398 0.612629 0.478869 -0.200938 -1.355365 0.403527 0.300548 -0.410447 -1.593106 -0.985782 -0.109916 0.471417 -0.489615 0.901606 0.437380 -0.780237 0.477800 -0.456724 -0.383924 -0.391547 0.482068 0.082917 -0.158018
czasem -0.062146 -0.086631 -0.476258 -0.233410 0.379561 0.738555 0.225291 -0.563277 0.201164 0.356619 0.120594 0.394013 0.163419 -0.240582 -0.000935 -0.578518 0.095784 -0.026083 0.276570 -0.160389 0.714437 -0.006984 -0.165269 0.672975 0.100231 -0.408205 -0.641097 -0.787642 0.537083 0.409351 -0.856027 0.043781 -0.167804 0.108255 0.874321 -0.437262 -0.661376 0.213994 -0.525764 0.202451 -0.099347 -0.055191 -0.592004 0.661341 -0.065403 -0.201866 -0.378578 -0.260984 -0.176697 0.045763
rozwiązanie 0.514437 -0.424652 -0.141944 0.271299 -0.283910 -0.117333 -0.668370 -0.450026 -0.185917 0.534710 -0.054731 0.351164 0.098566 -0.344914 -0.339377 -0.247489 0.655103 -0.687017 0.730462 0.214720 0.240469 -0.060309 -0.149425 0.541485 0.741884 -0.117340 -0.277088 0.324237 0.748049 0.445404 -0.235185 0.477976 0.129339 0.129724 0.512165 0.178131 0.026516 0.094693 -0.675844 0.483028 0.555626 -0.742452 0.130128 0.398419 0.039298 -0.377021 0.098478 -0.538505 0.299472 -0.843084
tworzenia 0.609564 0.384167 0.443935 0.654021 -0.297479 -0.165700 -0.084099 0.633424 -0.359973 0.213158 -0.331435 -0.507825 0.715717 -0.283742 -1.236393 -0.472960 -0.435980 0.338585 0.430356 -0.199667 -0.075944 -1.014511 0.083349 0.644487 0.910508 0.813532 -0.864643 -0.702124 -0.631156 -0.274161 -0.206183 0.065194 -0.128169 -0.393525 -0.588109 -0.334090 -0.478896 0.002791 -0.075984 0.029738 -0.607332 -0.047779 -1.497885 -0.576370 0.421808 -0.301936 0.903805 0.755061 0.593721 1.055375
cookie 0.163627 -0.246029 -0.173257 -0.137001 0.576349 -0.230306 0.758229 -0.042464 0.174770 0.064949 -0.025580 -0.054633 0.269149 -0.256894 -0.184730 -0.422844 -0.214109 -0.157058 0.198469 -0.005671 0.090030 0.034308 -0.906909 -0.276173 -0.386054 -0.170468 0.033906 -0.394432 -0.040802 -0.560112 0.131007 0.289484 -0.112700 0.219387 0.129810 -0.026842 -0.157168 0.212388 0.227929 0.553401 -0.201446 -0.058624 0.070780 0.065739 -0.004372 -0.463716 -0.349914 0.230317 -1.389181 0.560616
dane -0.032589 0.037209 -0.236125 0.165152 0.720561 0.420315 -0.473189 -0.491918 0.138042 1.135916 1.579415 -0.757612 -0.030925 -0.239397 -0.117060 0.537131 0.173357 -0.329656 -0.520865 -0.108742 0.332234 -0.486593 -0.252649 -0.149116 0.696884 0.800332 -0.675121 0.120952 -0.244633 -0.075247 -0.370993 -0.594923 0.802785 0.058782 0.469814 0.504854 -0.298661 0.974610 0.148307 0.729492 0.084710 -0.053573 -0.459163 -0.114016 -0.111879 0.224903 0.705554 0.458034 -0.374151 0.598974
praca 0.299850 -0.135856 -0.258577 0.725526 -0.312236 1.002224 -0.014073 -0.593227 -0.286051 0.167109 -0.082617 -0.524432 -0.010138 -0.048310 -0.052798 -0.973300 -0.152274 -0.386000 -0.258419 0.166470 0.956977 -0.562671 -0.409102 0.408186 -0.400254 0.142697 0.086005 -0.031217 0.582806 0.563957 0.021002 0.094612 -0.071366 1.185912 0.256403 -0.366429 -0.320720 -1.120393 -0.288705 -0.095666 -0.236867 -0.571979 -0.542728 0.121809 -0.285833 -0.788653 -0.530978 0.895071 0.519818 -0.816261
pozwala 1.012331 -0.197309 -0.098070 -0.080122 0.396379 -0.102071 0.006330 0.406058 0.403541 0.086342 0.402425 -0.083805 0.808612 -0.243809 0.013200 0.249092 -0.489615 -0.238516 0.270542 0.362891 0.792586 -0.488230 -0.112919 -0.294447 0.624621 -0.435170 -0.475871 -0.551645 -0.209649 -0.062458 -0.082951 0.776448 0.681229 -0.429580 -0.830345 -0.500314 -0.781596 0.237187 0.033850 0.584768 0.047050 -0.759945 0.103560 -0.082868 0.400890 -0.684309 0.574667 0.300729 0.313416 0.790875
systemu 0.660991 0.528663 -0.478723 0.078548 0.369407 0.999890 -0.455322 0.504571 -0.442686 0.224068 -0.222102 0.499760 -0.093862 -0.123214 -0.366700 0.475486 0.232382 0.095083 0.138523 -0.441302 0.116367 0.631004 0.395284 0.219090 0.427430 1.086051 -0.935181 -0.001560 -0.082701 -0.114824 0.428670 0.134123 -0.222473 0.433491 -0.889453 -0.930612 -1.355977 0.031588 -0.412259 0.368001 -0.638089 0.530420 -0.841034 -0.445987 0.420832 -0.221607 0.865519 -0.190711 0.747496 0.046707
najbardziej 0.155923 0.154487 -0.154318 0.320148 -0.038946 0.496224 0.092335 -0.341657 0.094800 0.006337 0.524738 0.007039 0.003504 0.278045 -0.466292 -0.162174 -0.180458 -0.136132 -0.059784 -0.023589 0.135830 -0.363449 -0.261807 0.295414 0.413487 0.253593 -0.032203 -0.698546 0.047680 0.554367 -0.031476 0.130136 0.313014 0.390398 1.162620 -0.091140 -0.754859 -0.727151 -0.354123 -0.190627 0.096118 0.271141 -0.485868 0.234508 0.478715 0.276894 -0.078462 0.712912 0.164830 -0.273431
testy 0.480496 0.182003 -0.741267 -0.012348 -0.250747 0.366237 -0.513269 -0.455367 -0.292458 -0.226456 -0.309870 0.361555 -0.028303 -0.977409 -0.386257 0.218573 0.016572 -0.788856 0.543513 0.068428 0.162806 -0.255447 0.889669 -0.638379 0.365568 0.424101 0.078981 -0.962798 -0.493614 0.157174 0.631973 0.986662 0.499499 0.069565 -1.383054 0.330955 0.399752 0.398954 -0.150297 1.129338 -0.407642 -0.065582 -0.679676 0.293218 0.407860 -0.867084 0.811520 -0.488396 -0.070067 0.118734
klasy 0.416617 -0.403194 0.723239 0.650499 0.058397 -0.146517 0.098469 -0.319059 -0.080663 0.466217 1.872774 -0.085073 0.461249 0.082482 0.039543 -0.876457 0.075850 -0.606758 0.081969 -0.172178 0.010453 0.351721 -0.544877 -0.077889 0.514931 -0.271445 -0.223521 -0.042392 -0.526823 -0.504359 -0.066017 0.281860 0.264314 0.681928 0.155805 -0.360608 0.579679 0.664024 -0.786823 0.843866 0.093690 0.018507 -0.655550 -0.523116 0.678662 0.173155 0.807642 0.362831 0.607338 0.517210
koszt 0.592631 -0.393083 -0.118038 0.044637 -0.774485 0.365243 0.450814 1.205530 -0.116951 -0.622717 0.716521 -0.179004 0.534710 -0.026261 0.102575 -0.441740 -0.510021 0.772081 0.171730 0.105540 -0.811802 -0.131602 -0.340122 0.409884 -0.172605 0.207659 -0.032187 -0.612936 -0.739803 1.068709 -0.314629 0.983563 -0.083479 0.170854 0.443422 -1.037618 0.488901 0.412990 0.004957 0.043139 -0.229054 0.500428 -1.409836 0.266917 0.168150 -0.014593 0.512149 0.110343 0.538785 0.392856
programista -0.377899 -0.302848 0.225928 0.347539 -0.333174 -0.536063 -0.045237 -0.117387 0.625875 -0.183180 -1.059108 0.180753 -0.492992 0.470980 0.003856 0.032534 -0.856897 -0.048820 0.753972 -1.264063 0.222479 -0.360587 -0.320982 -0.254864 -0.143117 0.810458 -0.509100 -0.745974 0.415499 1.729456 -0.257710 -0.319240 -0.111934 0.365911 -0.061538 0.401188 -0.362565 0.034282 -0.280115 -0.513986 -0.313287 0.514067 -0.137712 -0.078998 0.544918 -0.999503 -0.696169 0.054953 0.281482 -0.978675
swoją 0.428017 -0.217680 -0.313779 0.290010 0.335949 0.406417 0.267812 0.537754 0.144535 0.744799 0.946304 0.120356 -0.637717 0.738504 0.351315 0.695718 -0.076917 0.489528 0.449118 -0.785062 0.030911 -0.222705 -0.391762 0.858464 0.385932 0.764037 -0.207992 0.386804 0.207191 0.902827 -0.584834 -0.750063 0.275714 0.775686 -0.100457 0.283501 0.248091 -0.223408 0.157703 0.819435 0.457243 0.157028 0.529980 0.054526 -0.398223 -0.061634 -1.065588 0.687965 -0.345684 -0.427693
trochę 0.054782 -0.631537 -0.515453 0.036555 -0.368701 0.167589 -0.410974 -0.729717 -0.034122 0.176489 0.499141 0.150456 0.230303 -0.232960 -0.498633 -0.413526 0.466636 -0.327597 -0.809991 0.450874 0.537257 -0.139549 0.389816 0.705571 0.259808 0.239792 0.239296 0.028366 0.725939 0.289608 -0.049155 -0.197991 0.065996 0.765493 0.478944 0.050254 -1.102242 -0.374745 -0.364641 0.541098 -0.477653 0.226702 -0.435696 0.613547 0.045063 -0.468884 -0.361173 0.112094 0.142564 -0.058238
zmiany 0.241379 0.679118 -0.692053 0.369714 -0.300454 1.261520 -0.394264 1.099827 -0.773098 -0.379145 0.140884 0.892487 0.240603 -0.030539 -0.190690 0.707796 0.143676 0.300408 0.585473 -0.311854 -0.069436 0.091248 0.519279 -0.336651 0.661559 0.615126 -0.849053 -0.673120 -0.334436 -0.676197 -0.069631 -0.054322 -0.138865 0.200486 -1.524820 0.013241 -0.263689 -0.015086 -0.345317 0.410002 0.150531 -0.285539 -0.688091 -1.062967 -0.311440 -0.567404 0.791959 -0.233512 0.303525 0.130299
między 0.544425 0.024201 -0.228132 -0.552339 0.342130 0.136949 -0.568648 0.389997 0.196208 0.548328 0.045004 -0.443301 -0.453002 -0.044629 0.163245 0.553007 0.317667 0.192097 -0.457828 -0.167473 -0.276967 0.738427 -0.561547 0.994678 0.704121 0.796049 -0.847404 -0.244115 -0.059675 0.603105 -0.226624 0.280817 0.624106 -0.273566 0.321445 -0.463761 -1.022762 -0.344711 0.093827 0.183592 -0.435519 0.093897 -0.509472 -0.066538 0.026319 -0.517588 0.580265 -0.478020 -0.826576 0.473016
testów 0.365313 -0.395229 -0.299504 -0.056718 -0.121848 0.251475 0.098941 0.097369 -0.369039 0.129001 -0.253540 0.192359 0.013984 -0.559716 -0.615439 -0.191920 -0.382120 -0.319598 0.417588 -0.415739 0.166385 -0.426600 -0.071071 -0.032844 0.554028 0.265413 -0.294508 -1.049419 0.082598 -0.013401 0.267434 1.141119 -0.046092 -0.520377 -0.453731 0.120588 0.475629 0.152333 -0.497838 0.854823 0.399989 -0.453484 -1.172447 -0.110493 0.416672 -1.060507 0.516937 -0.451941 0.065728 0.284975
celu 0.780703 0.110943 -0.445968 -0.338239 -0.152267 -0.378762 0.778165 0.289750 -0.455585 0.335052 -0.213824 0.010238 -0.413126 -0.319842 -0.368230 0.394886 -0.123918 -0.246382 -0.246083 0.081317 0.274595 -0.195726 0.072633 0.715790 0.208930 0.580703 -0.835417 0.070719 -0.067260 -0.364422 -0.010888 0.248308 0.008946 0.323211 0.377299 0.083781 -0.522442 0.406644 0.549530 0.118632 -0.480036 -0.100588 -0.620594 -0.186451 -0.135740 -1.083135 0.916912 0.244115 -0.222900 0.342454
p -0.784551 0.276558 -0.289439 -0.070056 -0.224217 0.062893 0.200642 -0.482053 -0.551952 -0.248316 0.377311 -0.207909 -0.124503 -0.038915 -0.458132 -0.107332 0.599389 -0.531359 0.021746 -0.437456 0.284045 0.123384 -0.304315 0.375174 0.570376 0.690590 0.326005 0.633696 0.466151 0.015354 0.354871 -0.621276 0.172724 0.652417 0.713016 -0.031082 -0.163341 -1.159206 -0.100161 -0.112973 -0.403567 -0.362992 -0.334297 -0.128921 -0.426949 -0.151207 -0.158686 0.548208 -0.265021 -0.410065
pierwsze -0.886124 0.350058 -0.123499 -0.092968 -0.462875 -0.051458 -0.474767 -0.347828 -0.432357 -0.084481 0.267912 -0.224174 0.594369 -0.175494 0.359012 -0.182631 0.200531 -0.475169 0.431755 -0.307645 0.161560 -0.328616 0.134025 0.387281 0.464242 0.495465 -0.148929 0.479841 1.107927 0.506600 -0.047807 0.106903 -0.384904 0.234379 0.707413 0.551316 0.194183 -0.979670 -0.821909 0.633657 -0.527291 -0.640758 -1.131147 0.413494 -0.643965 -0.185942 0.146405 -0.242216 -0.178464 -0.272806
czego -0.051034 0.175329 -0.436656 -0.203983 -0.014537 -0.085383 -0.160636 -0.203974 -0.098686 -0.377213 0.182972 0.138934 -0.569182 0.128759 -0.182473 0.579979 -0.470553 0.380240 -0.132461 -0.174780 0.128590 -0.082217 0.546079 0.527733 -0.040233 1.148251 0.331437 0.017759 0.256961 1.085645 0.976089 -0.048661 -0.161603 -0.040022 0.053870 -0.008411 -0.404584 -1.356177 0.281881 0.412709 -0.393731 0.253960 -0.560855 -0.265031 0.467849 -0.612788 -0.050490 0.219774 0.383104 -1.307612
długu 0.867388 -0.048060 0.203756 0.685522 0.001621 -0.150316 -0.406036 -0.550942 -0.435061 -0.005655 -0.152101 -0.781007 0.200571 -0.612284 -0.184548 -0.158522 0.305838 -0.282306 -0.060688 1.082904 0.154406 -0.492310 -0.186317 0.764014 0.197535 0.959431 -0.571469 0.708332 -0.598519 -0.219729 0.527920 0.706076 0.635577 0.440962 -0.440141 -0.242151 -0.104762 -0.182943 0.173412 0.110298 -1.314194 -0.238223 0.156995 0.496195 0.212312 -1.066558 0.324103 1.353548 0.693619 0.635349
różnych 0.377736 -0.442913 -0.119657 -0.076073 -0.644846 0.201085 -0.286141 -0.378318 -0.091958 0.180669 0.517783 0.038558 0.453333 0.293139 -0.478761 0.162830 0.240372 -0.486150 -0.292091 -0.382624 -0.284197 -0.100999 -0.484997 0.431576 -0.257810 -0.192503 0.588484 -0.160884 0.605168 0.655519 -0.297299 0.005428 -0.203745 -0.048892 0.902645 -0.664210 -0.551495 -0.392205 0.137139 -0.173835 0.426739 1.145201 -1.120530 0.051086 -0.091846 -0.274197 -0.089163 -0.019422 -0.634658 -0.046063
rozwiązań 0.127074 0.431809 0.093052 0.001420 0.050618 -0.369061 -0.099791 0.173998 -0.016701 -0.064966 -0.264087 -0.084171 0.387467 0.447894 -0.307921 -0.898655 0.514335 -0.066099 -0.184244 -0.034823 0.031408 -0.624242 0.538969 0.283192 0.545899 0.313460 -0.191368 -0.358030 0.467701 0.077436 0.095408 -0.134010 -0.006926 -0.691238 0.622567 -0.257744 -0.837131 -0.538976 -0.050309 0.197679 -0.598335 0.052946 -0.901685 0.423914 -0.375773 -0.577361 0.289588 0.124493 -0.006699 0.370454
rozwoju 0.554698 -0.591134 0.820133 0.413632 -0.476339 0.053617 0.556133 0.211105 -0.520683 0.044817 0.148362 -0.047120 0.574967 -0.181750 -0.104288 0.086927 0.571211 0.049562 -0.275645 -0.425655 -0.063037 0.679180 0.431984 0.914458 0.406366 -0.647605 0.239242 0.201375 -0.180436 0.501307 0.074003 -0.285253 0.071699 -0.377238 0.887249 -0.656937 0.151742 -0.374068 -0.755896 -0.834546 0.563519 -0.224000 0.110579 0.362900 -0.092942 -0.631074 -0.286449 0.258245 0.199719 0.017978
ktoś 0.006338 -0.095328 -1.254836 0.644813 -0.988414 0.109874 -0.244629 -1.176176 0.100923 0.212740 0.189770 1.287524 -1.488397 -0.658134 0.080444 0.474508 0.565325 -0.233635 -0.819825 -0.005010 -0.604106 -0.210255 0.652385 -0.016369 -0.830097 0.022213 0.631441 -0.034953 0.948938 0.925500 -0.343867 -0.512728 -0.093436 0.347737 0.053917 -0.189861 -0.655981 -0.580885 0.382569 -0.580573 0.391705 0.350778 -0.871729 -0.021367 0.059383 -0.211476 -0.809014 -0.781137 -0.588141 -0.063156
problemy 0.324122 0.023902 -0.702308 0.331721 -0.202519 0.337641 -0.290503 -0.344136 -0.059277 -0.174333 -0.045770 0.987109 0.280153 0.131757 0.117707 -0.124564 1.004545 0.242393 -0.369331 -0.089694 0.624783 0.016863 0.408878 0.615352 0.094473 0.520131 -0.194717 -0.003395 -0.001840 0.396835 -0.168485 0.023179 0.037203 -0.219390 -0.133756 0.357018 -0.124446 -0.124276 -0.241755 0.089941 -0.924915 -0.237956 -0.793178 0.276962 -0.490613 -0.008322 -0.349479 0.874550 0.412711 0.062245
tak 0.426938 -0.779584 -0.990516 -0.183637 -0.387755 -0.259266 -0.274849 -0.992285 -0.387428 0.203691 0.529018 0.980914 -0.522564 -0.007050 -0.295310 0.089849 0.389284 -0.200215 -0.268567 -0.191458 -0.442443 0.832780 -0.100963 0.240671 -0.356368 0.217118 -0.175148 -0.079254 0.423524 0.755117 0.721793 0.012155 -0.125099 0.146558 0.691178 0.026653 0.362075 -0.655224 -0.478846 0.232929 0.417959 0.045955 -0.335926 0.302079 0.251049 -0.737393 -0.527601 -0.258404 -0.291582 -0.466347
technologii 0.197179 0.569291 -0.387139 -0.793781 0.642061 0.064087 0.217739 0.489312 0.084282 -0.427477 0.469127 0.416542 0.140809 0.006647 -0.502430 0.323700 -0.106870 -0.004889 0.264413 0.231773 -0.324986 0.273372 0.090429 0.076159 0.757312 0.196606 -0.219149 -0.216073 0.001782 -0.112757 0.016443 -0.192784 0.563200 -0.054864 0.667942 -0.741752 -1.178634 -0.699737 0.214252 0.763750 0.484872 0.265106 -0.400604 -0.713479 -0.351951 -0.497813 0.352559 0.269757 -0.089703 -0.070011
zrobić 0.026519 -0.234969 -0.535884 0.193313 -0.189810 -0.334397 -0.103092 0.238533 0.092079 0.332940 1.649898 0.862351 -0.155177 -0.234423 -0.214136 -0.037023 0.254234 -0.252371 -0.248498 0.315006 0.136552 0.384511 0.477105 0.359910 1.194134 -0.393662 -0.442978 0.496580 -0.103498 0.408085 0.015940 0.637357 0.055097 0.378255 0.406505 0.585264 0.141841 -0.594231 -0.676314 0.601196 0.070709 -0.078019 0.107083 0.703262 0.452193 -0.038042 0.198015 0.027887 0.302683 -0.454673
in 0.276243 0.199618 0.071516 -0.180656 -0.590208 0.818710 0.792142 -0.171474 -0.201191 0.786871 0.190103 -0.075779 -1.312640 0.420150 -0.141230 0.422760 0.500962 0.289531 -0.728358 -0.433386 0.530797 0.144036 -1.583396 0.217198 0.428214 0.317255 0.383800 0.412947 0.839300 -0.081400 0.418122 1.080674 -0.652571 -0.199073 0.576212 0.042529 0.015257 -0.125656 0.842221 -0.544612 0.631159 -0.326264 0.185917 -0.829614 -1.003946 -0.722335 1.363458 1.319932 -0.364475 -0.272686
natomiast -0.106590 0.325816 -0.262849 0.087417 -0.140521 0.071904 0.033894 0.324800 0.264015 0.126434 0.492249 -0.007604 0.020560 -0.463175 -0.166092 0.643503 -0.111058 0.363095 -0.124365 1.036924 -0.230261 0.039478 0.644786 0.046488 0.394729 0.237361 0.821139 -0.174776 0.425744 0.349901 -0.381449 0.671967 0.652006 0.277714 0.961301 0.952729 -0.399671 0.317090 -0.383033 0.536238 0.199468 0.317352 -0.440526 0.247818 -0.323704 -0.092614 0.114343 -0.399436 0.020617 -0.167817
powinien -0.067274 -0.224352 -0.295817 0.276328 -0.535453 -0.064520 -0.219017 -0.020286 0.047692 0.342223 0.268332 0.428951 -0.341725 -0.217579 0.234491 -0.514402 -0.238875 0.919089 -0.461065 -0.616119 0.412364 -0.395723 0.119748 1.126692 0.289340 0.319351 -1.350218 0.542026 -0.688366 1.468973 -0.481277 -0.316971 0.170471 -0.316293 -0.556572 0.281872 0.469952 0.198055 -1.158857 -0.355589 0.261083 0.068443 -1.156441 0.212266 0.231050 0.304643 -0.074477 0.272811 0.691956 0.552028
projektów 0.060881 -0.864012 -0.067526 -0.215765 0.662954 -0.499573 0.235870 -0.573670 -0.109675 -0.227322 0.291246 -0.030607 0.729153 0.046743 0.200251 -0.676221 -0.364922 -0.189231 -0.100783 -0.604417 0.161019 -0.252818 -0.418323 0.867676 0.068046 0.573117 -0.515735 0.169810 0.378903 0.245861 -0.481018 -0.236407 -0.030432 0.153240 -0.225327 -0.989904 -0.324135 0.623405 -0.284070 -0.247263 0.640862 0.463999 -0.876415 0.129679 -0.246772 -0.314185 -0.928923 -0.621713 -0.312674 1.018136
wartości 0.915656 -1.137200 0.200488 0.020694 0.356937 -0.514730 0.040122 -0.122770 0.631821 -0.128626 1.282957 0.509077 0.090874 0.089443 -0.039066 -0.219535 0.396926 -0.089620 -0.481936 0.631673 -0.255524 0.519479 -0.578429 0.438497 0.984722 0.001031 0.638843 -0.384748 -0.456173 0.024397 -0.453419 0.213152 0.747410 -0.742357 -0.022967 -0.321295 0.086521 -0.302528 -0.522957 0.881700 -0.427485 -0.271627 0.067997 0.156276 -0.277679 -0.646437 -0.349045 -0.161052 -0.068310 0.601447
część 0.076416 -0.117987 -0.680684 -0.065826 0.147141 0.186318 -0.272129 0.232265 0.056813 0.827720 0.232225 -0.274144 0.837780 -0.473199 -0.765318 0.548648 0.964835 -0.048523 -0.286823 -1.053885 0.515140 1.348013 0.438146 -0.067257 0.057245 -0.155110 0.261515 -0.031218 1.399360 0.108551 0.202634 -0.235564 0.717434 0.122434 -0.260802 -0.900010 -0.762604 0.460710 -0.504456 -0.040843 0.017439 -0.265056 -0.591377 -0.428235 0.192216 -0.711900 0.481725 0.210054 -0.432181 0.176321
takim 0.481269 -0.218133 -0.038245 0.344225 -0.538742 -0.756682 -0.013369 0.265692 -0.364354 -0.102501 1.179650 1.054595 0.011203 0.244988 0.693792 0.313065 -0.579505 -0.052173 -0.221033 -0.352792 -0.278509 -0.336703 -0.112505 0.019174 0.414275 1.127019 -0.731521 -0.346905 -0.040043 0.610555 -0.383299 -0.286718 -0.180979 0.198305 -0.030286 0.103343 0.739204 0.073249 -0.255661 -0.232883 -0.636987 -0.163109 -1.405161 0.125439 0.417578 -0.686606 1.195238 0.027177 0.506363 -0.070817
uwagę -0.730247 -0.187213 0.393633 0.917997 -0.107966 0.583772 -0.663519 -0.891506 0.295687 0.470672 0.664218 -0.234381 0.468801 -0.385730 -0.113763 0.369174 0.820147 -0.767796 -0.626919 -0.148060 0.928828 -0.634721 0.542626 0.183054 0.565536 -0.167200 0.315974 0.196544 -0.037460 0.136260 -0.197307 0.496407 0.678643 -0.288697 0.074393 0.388922 -0.324409 -0.832904 -0.236306 0.958461 0.636842 0.469382 0.134214 0.367931 -0.452012 0.492414 -0.428222 0.979822 -0.572619 0.092946
zostanie 0.334092 -0.332637 0.464396 -0.123827 0.384704 -0.239263 1.180851 -0.931271 0.063448 0.996035 -0.105926 0.907416 -0.764925 -0.755432 -1.230519 -0.035599 -0.005882 0.105459 0.412962 -0.170480 0.023229 0.861888 0.301444 -0.545419 0.654667 -0.474451 -0.482663 0.797759 0.184367 0.057451 -1.324213 -0.293572 0.603819 -0.470760 -0.332893 -0.183394 -0.390558 -1.137442 -0.719942 0.615985 0.844060 -0.486608 -0.191117 -0.989675 0.325869 0.605235 0.287492 -0.176181 0.801318 0.784529
google -0.396100 0.793586 -0.172834 0.194906 0.059863 0.408714 -0.013222 -0.995466 0.164952 0.141787 -0.152396 -0.472741 0.271557 0.098481 -0.141641 -0.652541 0.622921 -0.478337 0.014408 -0.336395 0.692485 0.106788 -0.765671 0.809836 0.096210 0.757451 0.206255 -0.101366 0.161165 0.198661 0.300496 -0.088434 0.539431 -0.120286 1.064592 0.724881 0.160548 -0.053951 0.274786 0.040616 0.051032 0.283833 -0.012868 -0.203739 -0.544726 -0.111057 0.100885 0.475552 -0.393761 0.110123
możesz -0.464388 0.160829 -0.461580 -0.009242 -0.377892 -0.579672 0.656298 0.394872 -0.148245 0.490836 1.223269 0.896013 -0.229708 -0.245175 -0.242845 0.517439 -0.047944 -0.215969 0.053453 0.162959 0.307946 0.119508 0.871840 -0.208450 0.020483 0.348887 -0.059188 0.198319 0.140369 0.623486 -0.322492 0.104925 0.054253 -0.036387 0.189708 -0.094424 0.226268 -0.424243 0.119372 0.593134 -0.590934 -0.045465 -0.410187 0.859437 -0.398226 -0.393871 -0.376397 -0.193928 -0.129241 -0.281067
system 0.821922 0.060560 -0.209739 -0.234806 0.891340 -0.272746 -0.152475 0.541355 0.349423 0.709911 -0.098685 0.168150 -0.818088 -0.832307 -0.650581 0.256887 -0.406332 -0.051028 0.394078 -0.876892 0.337684 0.716918 -0.573414 -0.049731 0.547993 0.634826 -0.681621 1.102076 0.236875 0.736534 0.284357 -0.070250 0.215256 0.108055 -0.272987 -0.897181 -2.056439 0.175040 0.003681 0.252840 -0.721433 0.394602 0.173075 -0.091708 0.194305 0.037366 0.253859 -0.609012 -0.667650 0.413010
lepiej 0.115503 0.007525 -0.471684 -0.372014 -0.362011 -0.528965 -0.137916 -0.002830 0.431271 0.735579 0.875770 0.731210 -0.501319 0.426788 -0.233099 0.648038 0.126547 -1.126481 -0.853792 0.172148 0.033467 -0.554580 0.561244 0.019693 0.911900 -0.000301 -0.105355 -0.622628 -0.126166 0.418309 -0.584715 0.342238 0.296698 -0.528463 0.214495 0.573625 -0.494827 -0.616804 0.205127 -0.118941 -0.243140 -0.157812 -0.018958 0.672111 -0.228376 0.023554 0.151387 -0.277542 0.103713 -0.289998
można 0.029490 -0.309748 -0.084475 0.211804 -0.373419 -0.029277 -0.333236 0.505840 0.380644 -0.345483 0.931279 0.563830 -0.040726 -0.028816 -0.143091 -0.097434 -0.083102 0.351134 -0.041921 -0.245956 0.627909 0.349915 -0.132852 0.129541 0.442621 -0.398832 -0.382620 -0.111969 0.254982 0.565414 0.226910 0.598734 0.456550 -0.453175 0.314369 -0.112523 -0.628459 0.113994 -0.731360 0.117713 -0.086884 0.128719 -0.263769 0.089515 0.306410 0.135590 0.028205 0.169077 -0.352902 0.334568
początku -0.660434 0.732437 -0.798718 0.155611 -0.472914 0.345997 -0.249197 -0.729999 -0.321604 0.050451 0.511921 0.084881 -0.365725 -0.702869 0.067246 -0.203564 0.061665 -0.071056 -0.249970 0.329367 -0.028861 -0.412211 0.001940 0.238580 -0.104869 0.442262 0.027930 0.270203 0.398961 0.309934 0.895910 0.439926 0.427076 0.908128 0.095052 -0.035674 -0.397009 -0.291733 -0.091847 0.340301 0.160437 -0.223604 -0.071800 -0.019511 0.257536 -1.113523 0.630865 0.388125 0.010263 -0.415010
pracuje -0.701291 -0.654375 -0.125890 0.261892 -0.215181 -0.099898 -0.249565 -0.093317 0.334876 -0.087925 -0.158189 0.080751 0.315769 0.247067 -0.456295 0.209427 -0.417447 -0.622076 0.317664 -0.992738 0.280407 -0.527706 -0.623555 0.415213 -0.143511 0.543746 0.820940 -0.536913 0.688556 0.115003 0.183665 -0.068799 0.293852 0.759161 1.091324 0.739627 0.253222 -0.280831 -0.013399 -0.278866 -0.208180 0.044836 -0.072022 -0.791123 0.038377 -1.334740 0.194471 0.109708 0.176954 -0.583102
swoich 0.544009 -0.265620 -0.005163 0.177737 0.011254 0.408770 -0.730246 -0.506726 -0.385609 -0.079519 0.465772 0.019894 0.482835 -0.302166 -0.178107 -0.536226 0.252923 -0.221305 -0.240262 -0.053654 0.078521 -0.077478 0.037618 0.519592 0.330947 -0.165087 -0.141194 -0.062789 0.631743 0.433021 -0.161715 -0.243357 -0.063127 -0.391407 0.278937 -1.250629 -0.610979 -0.013108 -0.501669 -0.461079 0.649028 0.684626 -1.090007 0.028353 -0.150259 -0.075791 0.390142 -0.089788 -0.095651 0.237677
branży 0.235094 -0.669415 -0.131635 0.196392 -0.154516 -0.305326 0.821644 -0.219784 0.260771 0.141805 1.333651 -0.388106 0.160982 0.024610 -0.031902 0.305309 -0.288481 -0.355654 -0.196014 -0.547326 0.230680 0.454109 -0.210815 0.626492 0.650811 0.556763 0.877427 -0.358093 0.875539 0.980866 -0.369867 -0.717385 0.739306 0.360260 0.227399 -0.414404 0.093078 -0.572995 0.029233 -0.175859 0.502109 -0.443549 -0.094912 -0.257949 -0.087868 -0.920687 -0.517225 0.298430 0.589940 0.411949
code -0.473631 0.338175 -0.931239 -0.300379 -1.120322 0.719851 1.106658 -0.117140 -0.048106 0.536994 0.361834 0.807680 -0.479338 -0.264997 -0.102023 0.277015 -0.210703 0.391951 0.395269 -0.562830 0.615731 -0.431797 0.404831 0.459153 -0.863995 0.202887 -1.242244 0.336462 -0.127154 -0.108107 -1.109483 0.208799 0.223482 0.278918 0.452883 -0.578412 0.261790 0.368265 0.493090 0.719344 -0.112600 -0.065056 -1.529609 0.295323 -0.040929 -0.648004 0.423537 -0.128855 -0.243986 0.482691
języka -0.014515 0.756696 0.029560 -0.565916 0.353007 -0.633570 0.584143 0.501580 0.517924 -0.072786 -0.254526 0.127625 -0.588890 0.046674 -0.654316 0.613466 -0.291280 0.421217 0.159510 0.751773 -0.130517 0.586617 0.459917 0.344985 0.706858 0.360154 0.479793 -0.113091 0.381442 0.183249 0.276357 0.333184 0.787102 -0.036567 1.169637 0.268083 -1.204283 -0.396695 0.226212 0.259111 0.054407 0.476025 -0.164606 -0.036948 -0.288006 0.464102 0.388509 0.179858 -0.004634 -0.296379
możliwość -0.089245 -0.165950 -0.206779 0.161948 0.158321 0.269657 0.044481 0.383558 -0.219806 -0.114791 0.089052 -0.036337 0.407615 -0.300488 -0.726487 -0.022400 0.061616 0.109514 0.247973 0.092710 0.209265 -0.381889 0.802124 0.677700 0.329613 -0.439864 0.980216 -0.265840 0.322534 -0.004247 -0.060325 0.016061 0.096419 0.588877 0.450474 -0.209116 -0.145387 -0.359165 -0.497800 -0.193158 0.383204 0.010605 -0.599143 0.099603 -0.159395 -0.570714 -0.237676 -0.051447 0.464744 -0.474268
naprawdę 0.164775 -0.643293 -0.926712 -0.559547 -0.658368 -0.054845 -0.044409 -0.430987 -0.113696 -0.053818 0.512129 0.510034 -0.089770 0.069082 -0.647281 0.165279 0.015180 -0.037875 -0.038411 -0.071251 -0.220592 0.658994 -0.229697 0.966916 -0.348813 0.112850 0.023958 -0.084554 0.381744 0.788769 0.624961 0.227733 -0.091096 0.598266 0.880431 0.040009 -0.151175 -0.557738 -0.233845 0.319418 0.154886 0.329374 -0.422239 0.316245 0.308316 -0.564437 -0.714853 -0.197633 -0.351274 -0.694349
pracować 0.396320 -0.388965 -0.235292 -0.305078 -0.326504 -0.454849 -0.309666 -0.011829 -0.687826 -0.109585 0.389083 0.492647 -0.157475 -0.481825 -0.084401 -0.209505 -0.476478 -0.385321 -0.077957 0.108885 -0.643067 0.136408 0.433693 -0.065592 0.295445 -0.178129 0.056955 0.385104 0.340021 0.705591 0.238240 0.851800 -0.567781 0.553886 0.554636 -0.380149 0.393072 -0.712324 -0.461566 0.532725 -0.185653 -0.107329 -0.796916 0.072616 0.423625 -0.176907 0.250434 -0.655958 0.471595 -0.489128
aplikacja -0.019566 0.584020 -0.517349 0.507990 -0.359851 1.026594 0.098742 -0.000573 -0.021324 0.734889 0.648248 0.617649 -0.181646 0.093978 -0.358286 0.765292 0.207949 0.360706 -0.237092 0.612654 -0.166699 -0.161729 0.486559 -0.650727 0.593648 0.484844 -0.549427 -0.188603 -0.260998 -0.279160 -0.630055 1.029077 -0.211899 0.327092 0.119921 0.762943 -0.122132 0.337579 -0.031966 -0.246070 -0.123329 -0.099803 -0.073742 -0.261134 -0.320318 -0.306528 0.396156 -0.039159 0.479466 0.323690
język -0.249536 0.465570 -0.001027 -0.531814 -0.256661 -0.393919 0.506100 0.109899 0.518967 0.203276 -0.497958 0.227986 -0.427148 0.285417 -0.689783 0.476415 -0.621262 0.796729 -0.048063 0.533974 -0.436646 -0.083637 0.269403 -0.092134 0.128164 0.492707 0.534241 -0.295375 0.806327 0.659288 -0.474667 0.694616 0.513987 -0.522600 1.481140 1.112323 -0.938207 0.372862 -0.272633 0.475120 -0.170311 0.582930 -0.538461 0.161446 -0.484911 -0.104758 0.145838 -0.181004 -0.428113 -0.176353
review -0.355445 0.358940 -0.956115 -0.402883 -0.986820 0.594616 1.003949 0.149219 -0.035190 0.445877 0.349621 0.813023 -0.414225 -0.414477 -0.143201 0.238818 -0.463151 0.508429 0.327844 -0.174867 0.499194 -0.556978 0.646311 0.276086 -0.918884 0.088433 -1.187277 0.638455 -0.359947 -0.263156 -0.947242 0.322228 0.308788 0.509954 0.227559 -0.549647 0.207721 0.420793 0.577652 0.964892 -0.119546 0.038666 -1.406449 0.410639 0.097834 -0.683141 0.209763 -0.178533 -0.131405 0.451302
wersji 0.355301 0.017888 -0.017065 -0.277187 0.017538 -0.998837 0.746257 0.960824 0.149074 -0.402063 -0.626967 -0.089478 -0.469948 -0.856852 -0.431583 0.834589 -0.538891 0.019793 0.583439 -0.384763 0.250273 0.584565 -0.339409 -0.331006 0.537566 0.142961 -0.255819 0.464415 0.636387 0.571303 0.839516 0.837589 0.299732 0.003371 -0.199836 -0.024109 -1.656631 0.664712 0.499361 -0.423271 -0.784742 0.138425 -0.971916 -0.394300 1.025436 0.271973 0.395100 -0.081240 -0.454099 -0.083476
pewno -0.230659 0.057362 -0.197846 -0.465786 -0.345497 0.913431 -0.544850 -0.434986 -0.412519 -0.251175 -0.433377 0.235310 -0.215518 -0.809183 -0.466546 -0.634432 0.499975 0.308385 -0.018088 0.068736 0.259690 -0.854368 -0.084012 -0.025820 0.144891 -0.044456 -0.562411 -0.103892 0.386752 -0.297355 -0.100085 0.266580 -0.055517 -0.025469 -0.341352 -0.726797 -1.013281 -0.509922 -0.307968 0.189517 0.532002 -0.098536 -0.260403 -0.497669 0.244928 0.032373 -0.625571 0.116396 -0.030278 -0.343951
wcześniej 0.119706 0.008350 -0.232082 0.083249 -0.450478 -0.421956 -0.284548 -0.152559 0.067913 0.306190 0.023154 -0.041627 -0.247791 -0.125857 -0.151822 -0.283431 0.419453 -0.319705 -0.307803 -0.033448 0.100642 -0.058836 0.015372 0.509847 0.281690 0.064446 0.127040 0.734972 0.017130 0.581136 -0.199227 -0.141452 0.311207 0.259463 0.418520 0.015667 0.145019 -0.615967 -0.230085 0.083050 0.150035 0.025195 -0.700218 -0.163411 -0.503860 0.078113 0.191645 -0.292172 0.174062 0.072971
data -0.597117 -0.898741 0.911496 1.329008 -0.792790 -0.660964 0.474387 1.004006 -0.173386 -0.127749 0.100613 0.281004 -0.646170 -0.364820 -1.030737 0.185422 0.121439 -0.079816 -0.509468 -0.459172 1.254671 0.204798 -0.678156 -0.321913 0.259356 0.138313 0.133680 1.236653 0.693155 0.065758 0.813913 0.053101 0.654086 0.046593 -0.050542 1.202868 0.081188 0.381437 -0.428036 -0.810137 -0.165182 0.817116 -0.308683 -0.364436 -0.154361 -0.244354 -0.195059 0.070382 0.105898 0.518855
moim 0.220274 -0.365996 0.133630 0.246865 -0.290663 -0.422195 0.322704 -0.292126 -0.062472 0.557264 -0.348196 -0.006330 -0.617186 -0.369792 -0.330333 -0.062983 -0.200741 -0.496806 0.642075 -0.019148 -0.159296 0.299073 0.153772 -0.187669 0.159751 0.387881 -0.181772 -0.734025 0.907121 0.501360 -0.304202 0.340238 0.222015 0.571419 1.469458 0.473584 -0.127699 -0.249623 0.344830 -0.799305 0.655904 0.070160 0.524568 -0.134676 0.253463 -0.278576 -0.065923 0.099113 0.305380 -1.051826
naszej 0.240703 -0.766277 0.104728 0.654547 0.153720 0.269070 0.046322 0.690831 -0.072351 0.114453 1.403717 0.191367 0.697207 -0.185454 -0.723069 -0.235283 -0.014545 -0.148915 0.479256 -0.306844 0.451852 0.448834 0.039427 0.260406 0.953987 -0.070818 0.328520 -0.179568 0.200964 -0.221597 -0.488500 0.497649 0.431837 0.631556 0.054106 -0.747423 -0.141579 0.131458 -0.883081 0.623088 0.250376 -0.113767 -0.889249 -0.511238 0.040834 -0.489909 -0.356824 0.382441 0.495032 0.232331
prostu -0.357665 0.125139 -0.293505 -0.063340 -0.282058 0.063061 0.250813 -0.429777 -0.010450 -0.572251 -0.133040 0.427659 -0.328182 -0.499347 0.399211 0.146014 0.082607 -0.374044 0.006880 -0.258338 -0.034252 0.100348 0.021268 0.258528 0.137869 0.075467 -0.060779 -0.283970 0.391223 0.363527 -0.173871 0.320976 -0.289265 0.203990 0.476900 0.365906 -0.533651 -0.239659 -0.554239 0.367713 -0.261411 -0.249729 -0.134503 0.148919 -0.345164 0.231734 -0.430391 0.018155 0.609406 -0.045329
firma -0.688003 -0.049455 -0.287881 0.263977 0.015959 0.198173 -0.043476 0.167364 0.120849 0.076636 0.239130 0.177691 -0.199311 -0.538483 -0.034651 0.142849 0.314943 -0.096255 0.117011 -0.048247 0.504792 0.216985 0.172012 0.282649 0.536877 -0.016948 0.494817 0.324373 0.655058 0.434678 -0.020670 0.566544 0.192525 0.477572 0.548760 0.686413 0.155855 -0.586421 -0.494668 -0.007231 -0.031455 -0.327406 0.132341 0.208671 -0.173088 -0.239475 -0.251584 -0.627485 0.208858 -0.702486
ludzi 0.275677 -0.310586 -0.707104 -0.269378 -0.039712 -0.201408 0.593114 -0.275187 -0.282562 0.346960 0.426618 -0.088425 -0.376770 0.037535 0.012285 0.308962 0.221926 -0.080014 -0.571697 -0.149974 -0.246458 0.237687 -0.123120 0.297690 -0.363602 0.230315 0.154841 0.333964 0.781121 0.128478 0.092882 -0.526073 0.298213 0.787003 0.315750 -0.636744 -0.167388 -0.376183 -0.093847 -0.035232 -0.079696 0.043119 -0.505275 -0.341641 -0.102168 -1.128825 -0.119144 0.328305 0.241997 -0.038009
engineer -0.223994 0.416687 0.898344 1.812186 -0.770394 0.398281 0.181590 -0.279864 0.127804 0.171794 -0.201184 -1.103569 -0.035637 0.017648 0.152437 0.606834 -0.187521 -0.434082 -0.411454 -0.937606 1.142542 -0.327162 -0.339585 -0.266932 0.356419 0.213771 0.801763 -0.596709 0.608248 0.677589 0.137902 0.405803 -0.172369 -0.161377 0.498024 0.285241 -0.130447 -0.368476 -0.005777 -1.330557 0.567509 -0.116336 -0.621792 -0.689993 -0.075328 0.303925 -0.456830 0.974690 0.698412 -0.608564
public 0.262940 -0.735328 0.190496 0.144316 0.618734 -1.007537 0.271398 0.039950 -0.351809 0.787891 0.900480 0.876832 0.029098 0.031502 0.045443 -0.874693 0.518563 -0.194577 -0.275248 -0.758870 0.542662 1.836468 0.306914 -0.559757 -0.046195 -0.792736 0.026677 0.402004 0.438020 0.030295 0.046431 -0.274939 0.164265 0.372910 0.296931 -0.485670 0.653978 0.642442 -0.652336 0.458488 -0.124664 0.328891 -0.201494 0.791458 0.826379 0.333984 -0.806490 -0.040154 0.196123 0.421154
technologicznego 0.882503 0.046502 0.047781 0.645009 -0.003660 -0.152214 -0.473413 -0.761991 -0.509842 0.113828 -0.332012 -0.797125 0.312974 -0.629045 -0.143129 -0.402227 0.295890 -0.591414 0.013211 0.900999 0.200540 -0.777032 -0.106736 0.822610 0.080423 0.987238 -0.615346 0.514789 -0.772054 -0.359318 0.469170 0.588919 0.615415 0.750753 -0.562971 -0.145846 0.068978 -0.276667 0.060035 0.194374 -1.184152 -0.039768 -0.030224 0.576290 0.306425 -1.079525 0.382231 1.364390 0.677244 0.597971
zazwyczaj -0.439618 -0.522892 0.182698 0.637806 -0.394160 -0.189170 0.252666 -0.123191 -0.254793 -0.044472 -0.313159 -0.327087 -0.285201 0.078011 -0.617511 -0.028988 0.044029 -0.236439 -0.342373 0.157051 -0.241982 -0.044500 -0.099921 0.202738 -0.438844 0.950725 -0.744565 0.195255 0.276079 -0.265117 -0.009125 0.355745 0.335430 -0.217389 0.197604 -0.029783 -0.121832 0.820038 -0.232891 0.509891 -1.404339 0.258394 -0.716250 0.076176 0.198631 -0.109134 -0.099736 0.092559 0.179979 -0.030747
aby 0.110808 -0.243383 -0.357135 0.327845 0.002889 0.437139 -0.139780 0.704141 0.005953 -0.373244 0.577342 0.774950 -0.063433 -0.504445 0.140269 -0.194572 -0.230990 0.358396 -0.017015 0.444813 0.142654 -0.418068 0.098888 -0.310245 0.578890 0.346432 -0.682040 -0.208802 -0.619908 0.178894 0.524216 1.183965 0.251956 0.311456 -1.293615 -0.171313 -0.612052 0.389864 -0.345954 0.911371 -0.506628 -0.106255 -0.327751 -0.031853 0.290795 -0.665586 0.082505 0.847298 0.389642 0.476028
funkcjonalności 0.591827 0.485245 -0.159638 -0.365256 -0.690499 -0.227142 -0.128253 0.600735 0.250456 -0.108815 0.056180 0.279629 0.738474 0.324844 -0.385535 -0.013004 -0.025537 0.163161 0.017700 -0.317627 0.159388 -0.742456 -0.074335 1.108070 0.455873 0.068122 -0.327768 -0.770077 -0.613603 0.590291 0.098748 0.319716 0.625160 -0.522323 -0.505145 -0.602038 -0.969413 0.057511 0.566478 0.895534 -0.541939 -0.273992 -0.930913 -0.451980 -0.041268 -0.641825 0.589082 0.361063 -0.807615 0.688888
podpowiedzi 0.886509 0.226796 -0.127201 -0.161762 0.135938 0.127597 -0.788371 -0.227561 -0.802588 -0.015207 -0.138727 -0.346155 -0.322825 0.138737 0.312046 -0.098923 0.133096 -0.512368 -0.830586 0.001307 -1.090977 0.330935 -0.068825 -0.190963 0.262792 0.398205 -0.297616 -0.163176 0.425195 -0.342531 0.067609 -0.324780 -0.295770 -0.191134 -0.045847 -0.876073 -0.150734 0.432986 -0.048799 -0.665655 0.565204 0.713794 -0.703894 -0.148496 -0.193350 0.257398 0.598984 0.609098 0.305332 -0.019438
pytania -0.646525 0.517618 -0.418834 0.436782 -0.039088 0.450731 -0.112693 -0.519298 -0.157419 -0.406643 -0.128586 -0.792127 0.539713 -0.495530 0.448651 0.067551 0.727715 -0.826645 -0.236967 -0.003041 0.328660 -0.693878 0.577688 0.472543 0.674965 0.704924 -0.075633 0.792840 -0.710673 -0.377511 0.246544 -0.370527 0.610667 0.460163 -0.200799 0.494276 -0.174591 0.055939 -0.480199 0.177676 -0.217891 -0.087062 0.481786 0.482201 -0.734280 -0.116522 -0.163678 0.534389 0.228958 -0.286720
aplikacje -0.021239 0.447395 0.557832 -0.015942 -0.043318 0.274106 0.289685 -0.318727 -0.015792 0.580910 -0.039595 0.382723 -0.146802 0.083434 -0.451543 -0.012220 0.249102 0.278626 0.367959 0.289276 0.305189 0.124013 -0.113106 -0.239402 -0.075638 0.454127 0.170551 -1.134059 0.585619 -0.180980 -0.554914 0.228221 -0.119736 0.028817 0.334508 0.186957 -0.416438 0.256823 -0.017746 -0.493230 -0.594754 0.334093 0.272855 -0.111266 -0.166141 -0.322579 0.112742 0.095696 -0.382603 0.285443
rynku 0.462679 0.080744 0.012367 -0.305814 0.604570 0.171187 0.089728 -0.053168 -0.039425 0.178984 0.453891 0.076306 -0.056986 -0.203878 -0.692133 0.236379 0.074592 -0.622591 -0.060225 -0.098147 0.167753 0.610033 0.097711 0.236456 0.492456 0.082765 0.543195 0.564715 0.512620 0.166977 -0.221647 -0.256811 0.305013 0.635081 0.746404 -1.227731 -0.843051 -0.893604 0.125412 0.151250 0.635386 0.643300 -0.322183 -0.382588 -0.072900 -0.348867 0.118997 -0.204489 0.290197 -0.185418
spotify -0.147195 0.104786 -0.458634 -0.323315 0.213692 0.321616 -0.274895 0.202073 0.448945 -0.390075 0.663870 0.291681 0.286824 -0.115486 0.028173 0.375060 -0.266020 -0.096649 0.102826 0.550939 -0.661890 0.114668 -0.160879 -0.260115 0.540785 0.434505 -0.473303 -0.015398 -0.539099 -0.524417 -0.329594 0.093917 0.067523 -0.383794 0.213663 0.353549 -0.336858 1.100588 0.328308 0.055241 -0.424405 -0.042273 0.293825 0.064828 0.033223 -0.305746 0.512846 -0.426546 -0.154934 0.339619
znaleźć 0.479648 -0.138300 -0.238400 0.303983 -0.020219 0.271892 -0.233440 0.734963 -0.501564 0.482596 0.281711 0.435174 -0.524741 0.597503 0.125905 0.045047 -0.039202 -0.337720 0.345141 0.099702 -0.749898 0.226115 0.152510 -0.248531 0.953581 0.625264 0.031563 0.671263 0.292742 0.151305 -0.374573 -0.055167 0.876316 0.682474 -0.227017 0.467401 -0.395946 -0.082429 -0.454257 0.414715 0.471433 -0.018259 0.065069 0.013515 -0.326739 -0.410111 -0.752182 0.721646 -0.074128 -0.697797
dwóch 0.122071 -0.258110 0.150492 0.329399 -0.346849 -0.004104 -0.191997 0.214751 -0.371871 -0.106680 0.273625 -0.427577 0.009911 -0.146806 0.234482 0.101279 -0.599808 -0.557943 0.586630 0.142020 -0.372346 -0.487533 -0.293544 -0.362337 0.086553 0.481059 -0.024069 0.121542 0.273138 0.375822 0.074384 0.091595 -0.082680 0.116310 0.783911 0.509772 -0.375590 -0.005289 -0.332732 0.315224 -0.327331 0.239625 -0.463002 0.177320 -0.383555 -0.630717 0.616021 -0.014690 0.005093 -0.187022
użytkownika 0.228109 0.127661 -0.319757 -0.285703 0.368605 0.338074 -0.662438 0.095741 0.274916 0.465619 0.522940 -0.021589 0.407089 0.073215 -0.220857 0.760828 0.128485 -0.269343 -1.009518 0.624480 -0.056227 -0.900297 0.222299 -0.259322 0.713975 0.065099 -0.120960 -0.398940 -0.480273 -0.695172 -0.709576 0.416469 0.198073 -0.749219 -0.465532 0.717616 -0.210132 0.387551 0.064241 0.139900 0.298091 -0.372175 0.140199 -0.436223 -0.449793 0.680354 0.404769 0.279626 0.314484 0.075016
umiejętności 0.177535 -0.309094 0.268163 -0.099300 -0.369243 0.087688 -0.312738 -0.623527 -0.493214 -0.218588 0.184015 0.323816 -0.342238 -0.072783 0.625521 -0.688671 0.428989 -0.162186 -0.703812 0.276541 -0.262974 -0.178756 -0.181428 0.183757 0.020176 -0.241106 -0.262328 0.204654 0.293290 0.405690 -0.027866 0.043626 0.003402 -0.047941 0.869992 -0.877124 -0.140037 -0.568954 -0.456867 -0.583007 0.156212 0.198381 -0.861089 0.092081 -0.124493 -0.177597 0.030248 -0.354864 0.122366 0.084703
chodzi 0.173283 -0.165658 -0.246328 -0.000846 -0.791264 0.342130 -0.066454 -0.003318 0.192090 0.015061 0.187497 0.494418 -0.458736 -0.431963 -0.465898 0.427458 0.818821 0.606454 0.081329 -0.091891 -0.046159 0.389949 0.207595 0.647604 0.292337 0.283768 -0.078120 -0.019951 0.816914 0.810341 -0.488157 0.029021 0.348087 -0.161212 0.035122 0.204218 -1.251522 -0.106987 -0.363164 -0.083242 0.511412 0.071986 -0.115947 -0.619536 -0.408046 0.148321 -0.799797 0.251726 -0.184716 -0.076854
innymi 0.036256 0.087257 -0.127413 -0.149377 0.460125 0.081504 -0.497208 0.486826 -0.101461 0.373310 -0.322045 -0.394784 -0.598887 0.289768 0.362197 0.604138 0.267919 0.226637 -0.431553 -0.249835 -0.392719 0.477098 -0.684416 0.635356 0.269378 0.662424 -0.549563 0.288296 0.065005 0.335868 0.081473 -0.018180 0.425722 0.083935 -0.002354 -0.276504 -0.421673 -0.501939 0.126864 -0.007394 -0.507677 0.141732 -0.351168 -0.090799 0.038506 -0.153028 0.243097 -0.585329 -0.767461 0.154652
od -0.559979 -0.354003 -0.112797 0.243073 0.071035 0.118880 -0.295479 -0.634751 0.121181 -0.666190 -0.145419 -0.561025 -0.169013 0.043329 0.129185 -0.134065 -0.902624 0.128880 0.127372 0.010410 0.483048 -0.571420 -0.897285 0.169002 -0.344888 1.198769 0.145346 -0.582507 0.481493 0.955885 1.229400 -0.011745 0.107020 0.315318 -0.007088 0.362964 -0.439587 -0.662260 0.355596 0.043284 -0.254963 -0.005963 0.333001 -0.819379 0.167008 -1.092312 -0.001020 0.488808 0.208192 -0.877862
frontend -0.163712 0.125315 0.934535 1.662345 -0.427946 0.502863 0.273854 0.317706 0.767485 0.137928 -0.160006 -0.824790 0.206668 -0.095996 0.021054 0.689765 0.036378 -0.114181 -0.420548 -0.918793 1.349226 -0.011776 -0.236690 -0.356780 0.302788 0.117019 0.903529 -0.394750 0.532669 0.878843 -0.107083 0.307533 0.117806 -0.325205 0.557873 0.815556 -0.733610 -0.047307 -0.537715 -1.584090 0.092743 0.378609 -0.306176 -0.303368 -0.286274 0.382919 -0.738900 0.811647 0.250076 -0.107483
naszych -0.291376 -0.394863 -0.060026 0.288747 -0.130817 0.250391 0.002062 -0.189023 -0.556935 -0.287761 0.827483 -0.036859 0.000201 -0.168429 0.050447 -0.613208 -0.370509 -0.336070 -0.087838 0.324959 -1.121855 -0.388178 -0.314820 0.213475 0.223193 0.363225 -0.232496 -0.001667 0.329171 -0.086877 -0.005474 0.066562 -0.585073 0.519072 0.868175 -0.577746 -0.391822 0.205182 -0.320078 0.176819 -0.412196 0.215233 -0.540600 0.087974 0.117100 -0.206069 0.032375 -0.146719 -0.205274 -0.100151
dalej -0.016663 0.273248 -0.287139 -0.011963 0.272076 0.325160 0.256264 -0.075807 0.143084 0.489395 0.189740 0.090040 0.030188 -0.184392 -0.156985 0.383127 0.283836 -0.261673 -0.139711 -0.158175 0.072129 0.676798 0.096951 0.325480 0.144498 0.043126 0.040208 -0.249878 0.782244 0.198095 -0.294362 0.077540 0.004364 -0.202093 0.601493 0.293296 -0.290084 0.021873 -0.327246 -0.297820 0.504022 0.142697 0.127977 0.423587 -0.105091 0.186644 0.296123 -0.180806 0.055490 0.029348
pierwszy -0.789846 0.054474 -0.558607 -0.527909 -0.058352 -0.259069 -0.203272 0.064332 -0.033505 -0.561067 -0.021193 0.054118 -0.100857 -0.721714 0.434198 0.010801 -0.184782 -0.194561 0.151470 -0.049581 0.558445 -0.426701 -0.346796 0.122926 0.401154 -0.105420 -0.226418 -0.153751 0.349764 0.162515 0.587324 0.195313 -0.161905 0.490654 0.181471 0.215299 0.114136 -0.533672 -0.210712 0.343526 -0.246272 -0.939017 0.154227 -0.324418 0.140337 -0.466061 0.500821 -0.408693 0.113335 -0.499540
szybko -0.085881 0.233548 -0.492312 -0.107687 -0.124727 -0.079495 0.280707 0.652881 -0.250388 -0.273432 0.371913 0.604046 -0.439762 -0.210264 0.090119 -0.353823 0.034941 0.022528 0.403181 0.529028 0.010971 0.072889 0.054526 -0.282939 0.326746 0.067481 -0.206918 0.176000 0.492545 0.013646 0.202912 0.552282 0.083032 0.897206 0.234481 0.572384 -0.270144 0.197035 -0.088505 0.500095 -0.120798 -0.344696 -0.235769 0.082769 -0.095735 -1.044494 0.244199 0.162323 -0.172755 -0.627410
zarówno 0.204584 -0.007007 0.084751 -0.334563 -0.053931 0.108668 0.172453 0.598031 -0.101926 0.084012 -0.240043 0.096381 0.371313 0.205926 -0.209611 -0.313683 -0.275937 -0.161421 0.044035 -0.134904 0.026149 0.091951 -0.151087 -0.179015 0.041470 -0.241467 0.139472 -0.066702 0.316930 0.090981 -0.414502 0.267153 0.292447 0.512024 0.390331 -0.073165 -0.127889 -0.027202 -0.148111 -0.254236 0.169147 0.294406 -0.841193 -0.061555 0.143823 -0.665733 0.031553 -0.264704 -0.322332 -0.224473
elixir -0.469946 0.635886 0.112500 -0.411466 0.358373 -0.024666 0.604422 0.763444 0.456030 0.195670 -0.509806 0.062214 0.054362 0.464103 -0.204513 0.274238 -0.559494 0.243917 0.109103 0.764334 -0.397986 0.308990 0.226547 -0.002374 -0.056614 -0.112482 0.729235 -0.673300 -0.020117 -0.089422 -0.280494 0.250058 0.667229 -0.406712 0.852844 0.890549 -0.423212 0.389181 0.004672 -0.133552 -0.097229 0.517052 0.163400 0.428964 -0.620818 0.608348 -0.135737 -0.129390 -0.617652 0.304087
i -0.077052 -0.427404 0.167179 -0.263141 -0.502412 -0.470903 -0.274637 -0.283876 -0.211587 -0.193279 -0.223789 0.074101 -0.042412 -0.270493 -0.189766 -0.151855 0.320239 -0.449271 0.434584 -0.109135 -0.233161 0.075867 0.097374 0.611187 0.633063 0.162577 -0.411438 0.194416 0.244428 0.536846 -0.076048 0.096067 0.391982 0.195261 0.059231 0.412669 0.181216 -0.297905 -0.555159 -0.297415 0.452933 -0.613595 0.110908 -0.074699 -0.006773 -0.155185 -0.442012 -0.126117 0.436317 -0.214795
jeżeli 0.376871 -0.081830 -0.483948 -0.798172 -0.964814 0.176845 -0.234294 0.376493 0.324082 -0.361256 0.203652 0.168730 -0.101184 -0.071116 -0.198319 0.430651 -0.412800 0.547297 0.125340 0.140984 -0.449389 -0.242885 0.475002 0.060108 -0.161768 -0.242952 -0.168158 -0.244310 0.083109 0.695831 -0.538704 0.076626 0.019390 0.408690 -0.381942 -0.098930 -0.106853 0.114396 0.347122 0.709172 0.296348 -0.079786 -0.302834 -0.049322 0.054516 0.021155 -0.223023 -0.703645 -0.160621 -0.160328
jednak 0.091296 -0.431768 -0.080543 -0.295001 -0.065635 0.001392 0.307056 0.055367 -0.035553 -0.131950 0.311178 -0.352142 0.181224 -0.382633 -0.151675 -0.779081 0.072507 0.019867 -0.040176 0.165433 -0.048411 -0.277249 -0.262481 0.755306 -0.050365 0.080501 0.148371 0.159777 0.153209 0.230692 -0.278548 0.243209 0.020711 0.638250 0.315230 -0.856673 -0.119144 -0.211378 0.117443 0.312843 -0.338311 -0.076189 -0.475756 0.204001 -0.248584 -0.434950 -0.380341 -0.233971 -0.282011 0.092856
powinna 0.153280 0.118471 -0.041032 -0.344885 -0.220400 0.857520 0.036741 -0.247992 0.030657 0.266222 -0.126346 -0.711948 -0.467272 -0.124146 0.210742 -0.195409 -0.014154 0.121034 -0.897216 0.577035 -0.548687 -0.096674 -0.076803 0.653655 0.004948 -0.011822 -0.474558 0.003601 -0.192146 -0.912550 -0.143627 0.687725 0.602330 0.563161 -0.408804 -0.342901 -1.111086 0.676114 0.066522 0.390064 0.179524 -0.504980 0.103977 -0.377206 0.007346 -0.059865 0.239494 0.729255 0.558208 0.673841
samym 0.749226 -0.393492 0.090169 0.074133 -0.350627 -0.220950 -0.371292 0.099426 0.015133 0.158545 0.238624 -0.280255 0.290560 0.052221 0.072289 -0.209281 -0.291561 -0.544509 -0.271425 0.244658 -0.193137 -0.509012 0.076045 0.248101 0.421719 0.365553 -0.244061 0.288389 -0.144852 0.296226 -0.378336 0.085541 0.344834 0.389824 0.145919 0.296676 -0.121132 -0.227232 -0.245679 0.187681 -0.427678 0.022393 -0.596224 0.268710 0.450457 -0.342263 0.594688 0.009026 0.516775 -0.069500
siebie 0.213725 -0.204039 -0.158035 0.493321 -0.249072 0.125693 -0.128281 -0.444795 0.239897 -0.279293 0.514427 0.090472 0.046071 -0.290581 0.074123 0.044171 0.374513 0.196082 -0.070574 0.062900 0.091746 0.061648 -0.144688 0.290994 0.462664 0.121784 -0.086276 0.166370 0.361661 0.099205 0.298279 0.560742 -0.231988 -0.045497 0.479418 -0.261608 -0.063430 -0.665742 -0.278603 0.502451 -0.236690 0.186184 -0.051016 -0.126069 0.376575 0.171217 -0.048031 0.597131 0.160115 0.075943
swojej 0.166017 0.124258 -0.267642 0.086767 0.310923 0.038758 0.363539 0.033691 0.127423 -0.437939 0.455894 -0.191488 0.242068 -0.249681 -0.433457 0.321449 -0.363914 0.113319 0.237163 0.048058 0.030655 0.136516 -0.203356 -0.049509 0.536484 0.038667 0.639070 0.255656 0.443435 0.015587 -0.312379 0.516853 -0.257592 0.540912 1.277763 0.080989 0.205898 -0.135194 0.022107 0.288176 0.267393 0.043168 -0.310341 -0.070782 -0.006600 -0.348039 0.149551 0.132268 0.015368 -0.431113
części -0.210998 -0.010203 0.083947 0.431755 -0.436693 0.760442 -0.322273 -0.135642 -0.524352 0.389106 0.007149 0.487241 -0.073463 0.175880 -0.285907 0.394732 0.478391 -0.820361 0.452356 -0.737847 -0.056976 -0.000263 0.286406 0.162930 0.497461 -0.055710 -0.251242 -0.350616 -0.090540 -0.240667 -0.655116 0.118093 -0.312567 -0.209326 -0.039398 -0.082548 -0.369085 -0.101231 -0.535990 -0.570216 -0.064219 0.064250 -0.221299 0.257891 -0.347331 0.133553 0.500954 -0.187207 0.368252 -0.429101
hr -0.373925 -0.035792 -0.104456 0.181001 0.720526 0.161494 0.385591 -0.179920 0.616693 0.631816 1.470255 -0.444452 -0.271633 -0.012499 0.271264 0.476128 -0.465398 0.445813 -0.517924 0.423878 0.377009 0.698095 0.582219 -0.262095 0.304817 0.490352 0.583426 0.204824 0.675843 0.368367 -0.285894 -0.773710 -0.229226 0.677620 -0.296275 0.679794 0.307863 -0.226732 0.342597 -0.266695 -0.668554 -0.816270 0.320196 0.546426 0.280045 -0.129705 0.470250 -0.045533 0.019225 -0.381744
momencie 0.913979 -0.514813 0.144981 -0.435021 -0.379695 -0.027438 0.045256 0.580069 0.119854 0.031236 0.312480 0.596019 -0.315717 -0.206642 0.160499 0.485860 -0.327873 0.366864 0.600384 0.111514 -0.772987 0.084215 0.694017 0.606594 0.167253 0.387560 -0.306944 -0.759150 -0.307204 0.599779 -0.497010 0.455911 -0.013712 0.318263 0.074772 -0.927596 -0.523182 0.496556 -0.417087 -0.095996 -0.004851 0.662162 -0.517533 0.135184 0.388763 0.122979 0.328728 0.247546 1.715906 -0.148559
narzędzi -0.160314 0.399949 -0.318453 -0.367570 0.025106 -0.141987 0.390272 0.559502 0.243389 -0.325299 0.329619 0.024075 0.229556 0.215226 -0.081408 0.018568 -0.182689 -0.222367 -0.146742 -0.087365 -0.652525 0.036898 0.057699 0.455685 0.355240 0.098952 0.571371 -0.424070 -0.212827 0.070545 -0.326730 -0.262265 0.599960 -0.279959 0.649489 -0.225652 -0.353927 -0.132923 0.500483 0.060084 0.408963 0.581583 -0.582335 0.096074 -0.543001 -0.125102 0.003588 0.318946 -0.080434 0.331201
obecnie -0.273952 0.427467 -0.166510 -0.343254 0.079627 0.458109 -0.101352 -0.251241 0.273282 -0.077624 -0.142099 -0.133956 0.018915 0.263633 -0.283034 -0.186402 0.093254 0.080404 0.299233 -0.313069 0.141441 0.192270 -0.136857 0.448741 0.017605 0.199661 0.485284 0.095033 0.538748 0.052092 -0.115010 -0.101176 0.050775 0.756344 0.767173 0.079119 -0.154814 -0.176489 0.241372 0.208838 0.014020 0.241432 0.004965 -0.260936 -0.105698 -0.366032 0.262225 -0.137750 -0.059866 -0.347010
podejście -0.098459 -0.284044 -0.303888 0.289530 0.686546 0.293412 -0.227363 0.082856 0.503205 -0.058795 0.397761 0.056969 -0.048949 0.083419 0.002206 -0.254080 0.336207 -0.090043 0.177066 0.298675 1.087393 0.090764 0.049953 0.516686 0.248891 0.007947 0.442098 -0.130797 0.490865 -0.161606 0.078091 -0.227623 -0.015189 0.280732 -0.124016 0.553635 0.292845 -0.096193 -0.357137 0.457200 -0.826620 -1.068790 -0.145554 0.521170 -0.466994 -0.537508 0.086201 -0.386092 -0.303340 -0.744329
pythona -0.268235 0.220877 -0.366034 0.476874 -0.344601 -1.065408 0.757746 0.821007 -0.306470 -0.267573 1.058617 0.592617 -0.670391 -0.071643 0.025250 0.040336 0.295667 0.349049 -0.237933 -0.226524 -0.096497 0.069127 -0.346578 -0.228371 0.437216 0.660536 0.316528 0.969722 0.041209 -0.038884 1.427032 -0.109242 0.458151 0.562464 0.549548 0.339074 -0.310019 -0.252935 0.010834 0.126040 -1.034464 0.065859 -0.815625 -0.341881 -0.184166 -0.226192 0.242950 0.716038 -0.377228 0.607700
taka 0.044327 -0.242797 -0.096746 -0.295275 0.108792 0.670823 0.395710 -0.119945 -0.174139 0.625283 -0.059494 -0.258825 0.067799 -0.365115 -0.391723 -0.116043 0.014544 -0.036123 -0.138782 0.476837 -0.123785 -0.277837 0.437845 0.934655 -0.080056 0.206060 0.129919 -0.459023 0.198260 -0.565711 -0.570618 0.376305 0.504012 0.560482 0.529427 -0.288891 -0.801558 0.310292 -0.264753 0.375160 0.288266 -0.044484 -0.184966 0.097383 -0.371400 -0.593892 -0.170790 0.417218 0.296409 0.141226
wiedzy 0.522599 -0.163200 0.131350 -0.587951 0.064131 0.274856 -0.265103 -0.384180 0.203021 -0.404170 0.129504 -0.424551 0.145242 -0.350502 0.250147 -0.688228 -0.118826 0.071866 -0.399896 0.547031 0.163127 -0.264118 -0.245798 0.449984 0.255399 0.257650 0.346953 0.021212 0.256821 0.856969 -0.243818 0.087123 0.201201 0.655850 0.868682 -0.708647 -0.237167 -0.391228 -0.315038 0.474364 -0.416858 -0.213936 -0.255202 -0.087460 -0.526687 -0.312013 -0.056213 -0.138993 0.265732 -0.324232
cały -0.064511 0.348304 -0.287643 -0.148838 -0.254247 0.391306 0.322248 0.577656 0.072777 0.442870 -0.489827 -0.443473 -0.229331 -0.305873 -0.540540 -0.550390 -0.169701 0.802593 0.089861 -0.102941 -0.200700 -0.463806 -0.378344 0.997046 0.090521 0.653904 -0.382071 0.484607 -0.044960 -0.010429 -0.371064 0.362321 0.547541 0.772841 0.104789 -0.142644 -0.660361 -0.396652 -0.550218 0.226702 -0.580623 -0.069827 -0.386130 -0.034490 0.060567 -0.309025 0.096474 0.177963 -0.124212 0.732113
dlatego -0.081821 -0.046204 -0.091087 -0.055296 -0.430026 0.325710 0.029199 0.563804 -0.433877 -0.000563 0.426904 0.571176 0.197648 0.027253 -0.237503 0.128359 -0.212741 0.100076 0.123067 0.036342 -0.318781 -0.103708 0.389522 0.388140 0.130057 -0.169435 -0.103512 0.109092 -0.449478 0.118031 -0.142214 0.438502 0.352733 -0.283186 -0.257261 -0.552806 -0.333441 -0.100426 -0.142055 0.252081 0.201337 0.205876 -0.438817 0.177783 0.078247 -0.117697 -0.057972 -0.176787 0.448861 0.088446
dzień -0.532078 0.599108 -0.355247 -0.333973 -0.250598 0.534908 -0.204410 -0.216269 -0.249113 -0.300923 -0.544667 -0.374179 0.187429 -0.527880 -0.693870 -1.161849 -0.037804 -0.100519 0.021280 0.034285 0.290697 -0.939367 -0.517907 0.648504 0.037212 0.091524 0.278150 0.118617 0.768959 0.079998 0.384549 0.045263 0.332194 1.055678 0.696621 -0.154612 -0.402225 -0.889060 -0.498957 0.133406 -0.236458 -0.306430 -0.213370 -0.495203 -0.197750 -0.554695 -0.176909 -0.045035 -0.515912 -0.414957
manager -0.439984 0.685738 -0.018088 0.967368 0.095850 0.141905 -0.024452 0.746030 0.494447 0.000924 -0.116300 0.503654 0.696580 0.229787 0.004500 1.148829 1.004377 -0.646963 0.316208 0.343853 1.040064 -0.284599 0.277083 -0.537390 0.265658 0.245055 -0.171413 0.458648 -0.278572 -0.351841 -0.690009 0.480248 -0.298615 -0.708231 -0.328622 1.307053 0.613295 -0.549770 -0.137457 -0.773992 -0.246604 0.283511 0.595915 0.101745 -1.211770 0.784265 -1.046926 0.038915 -0.236232 -0.419679
o -0.353746 0.006911 -0.072180 0.024420 -0.063743 -0.374767 -0.302126 -0.153895 0.043254 0.217056 -0.110756 -0.142374 -0.041495 0.197300 -0.121452 0.079781 -0.590746 -0.690648 -0.234125 -0.466127 0.594631 -0.619780 0.337001 0.170607 0.406294 0.097993 0.584094 0.187721 0.241499 0.682693 0.058568 -0.648783 0.472491 0.357430 0.449163 -0.034550 -0.106919 -0.470152 0.131379 -0.585322 0.652656 0.286875 -0.244139 0.107562 -0.179987 -0.590882 -0.458363 0.381981 0.152737 -0.341703
później 0.312414 -0.326947 0.078485 -0.044822 -0.197291 -0.139260 -0.256923 -0.179036 0.375282 0.132372 -0.586845 -0.458375 0.086603 -0.255744 -0.385523 -0.292738 0.149195 -0.676991 0.081723 -0.004702 1.198418 -0.262358 -0.344284 0.478290 0.336119 0.344453 -0.039007 -0.018849 0.358151 0.431408 -0.037270 0.645625 0.025943 0.101823 -0.022274 0.261529 -0.239998 -0.561827 -0.319736 0.207445 -0.609963 -0.085916 -0.276818 0.256502 -0.075129 0.141545 -0.025709 -0.118076 0.056069 -0.398354
produktów 0.751567 0.100881 0.303758 0.041737 -0.025106 -0.081624 -0.801448 -0.150657 -0.587967 0.061315 0.178223 -0.499881 -0.004237 0.038758 0.075838 0.218592 0.061841 -0.456701 -0.661099 0.216003 -0.842465 0.102567 -0.332658 0.044128 0.376975 -0.039517 0.049678 -0.312980 0.279938 -0.716040 0.148036 0.012066 -0.728073 -0.260298 -0.056481 -0.322257 0.177112 0.670641 0.158914 -0.484840 0.264510 0.599000 -0.304093 -0.252019 -0.155562 0.495894 0.967331 0.320356 -0.273187 -0.119361
większość -0.381185 0.291492 -0.232210 -0.573503 0.276428 0.188336 0.045708 -0.177261 -0.054118 -0.223750 -0.029577 -0.259427 0.215918 0.196610 -0.043164 0.295545 0.301946 -0.668427 -0.688364 -0.215926 -0.296147 -0.010065 0.347168 0.302864 0.299475 0.311241 0.600378 -0.101854 0.353293 0.329063 -0.044741 -0.299770 0.228047 0.549553 0.326569 -0.114761 -0.559803 -0.595366 -0.124577 -0.177570 0.177196 -0.252132 -0.465295 -0.276337 -0.670098 -0.276036 -0.083513 0.114742 0.157506 -0.298264
do -0.094522 0.522040 -0.316313 -0.405765 -0.093357 -0.024631 0.101720 -0.030254 0.144168 -0.268018 -0.164213 0.051533 -0.149767 -0.116672 0.046323 0.465248 0.218462 -0.042394 -0.139123 0.046592 0.085734 -0.287736 0.579611 0.436456 0.128320 0.674887 -0.063110 -0.288810 0.036061 0.256219 -0.195926 0.140637 0.048165 0.018031 0.345670 0.068400 -0.402315 -0.311209 -0.144000 -0.041814 -0.415987 -0.071252 -0.213780 -0.031691 -0.567491 -0.462815 0.221737 0.191386 0.413168 -0.605374
javascript 0.011034 0.336812 0.706256 0.816110 -0.499194 0.049854 0.457186 0.708682 0.682093 0.160472 0.033935 -0.303926 0.262774 0.144268 -0.386882 0.219092 -0.413957 0.268632 0.217292 -0.558509 1.150232 0.227126 -0.166325 -0.883970 0.054148 0.342192 0.244247 -0.478965 0.420092 0.738249 -0.232912 0.574937 -0.147964 -0.251385 0.410783 1.029302 -0.306296 -0.160725 -0.476413 -0.955960 -0.740896 0.224663 -0.614693 0.045361 0.279655 0.034304 0.414717 0.253807 0.152404 0.137288
jedną 0.134955 0.168058 0.101637 0.238593 -0.393532 0.761716 -0.156817 0.645538 0.051744 -0.007957 0.538187 -0.851200 0.218866 0.527270 -0.013694 -0.023316 -0.280341 -0.015514 -0.312913 -0.039609 -0.042127 -0.056043 -0.209114 -0.079336 0.038048 -0.165609 0.454740 0.203384 0.406210 0.366077 0.198506 -0.017361 0.270802 0.168740 0.163944 -0.569608 -0.707494 -0.321354 0.291868 0.242590 -0.077291 0.049995 -0.269669 -0.179019 -0.234136 -0.117194 -0.071186 0.616213 0.157303 -0.091686
narzędzia 0.205502 -0.044107 -0.141117 -0.181950 0.351305 0.132643 -0.210719 -0.237571 -0.256851 -0.171309 0.223038 0.073259 0.358501 -0.178577 -0.079078 -0.394198 0.400709 -0.559982 0.147425 0.194294 0.345182 -0.249185 0.220818 0.200065 0.243632 -0.087145 -0.037520 0.297094 0.216270 -0.326294 -0.029280 -0.091841 0.170837 0.503684 -0.272720 -0.106370 0.382560 -0.422217 -0.480795 0.746811 -0.076716 -0.461718 -0.473934 0.038885 0.025482 -0.526952 -0.064808 -0.231466 0.197919 -0.332705
osoba 0.400749 0.069458 -0.343516 0.060547 -1.019547 0.245598 0.553323 0.091342 0.029499 0.125578 -0.045009 0.589608 -0.390661 0.310966 0.095693 0.433743 0.074514 0.280710 -0.040486 -0.179231 -0.363496 0.121849 0.101409 0.230814 -0.654178 0.154571 -0.595422 -0.418948 0.018530 0.592877 -0.779894 0.329625 -0.273880 0.726872 0.230693 0.029843 -0.078555 0.240582 0.318716 -0.245344 0.272063 -0.105558 -0.068163 0.084130 0.155266 0.109732 -0.684951 -0.288869 0.377277 0.309729
takiej 0.563087 0.085609 -0.134241 0.226311 -0.800638 -0.053893 0.544863 0.534746 -0.650920 0.061428 0.971421 -0.089599 0.372108 -0.074486 -0.558623 -0.355706 -0.455706 0.020202 0.388796 0.060868 -0.206249 -0.275794 0.246156 0.205738 0.592863 0.089893 -0.147746 0.117447 -0.266924 0.651874 -0.438096 0.404777 -0.169332 0.762411 0.301505 -0.577581 0.579738 0.219287 0.116494 -0.061626 0.098067 0.382885 -0.962576 0.109924 0.192465 -0.748188 0.422332 0.332055 0.647441 -0.090307
wszystkim -0.421782 0.312185 -0.431954 -0.197692 -0.173897 0.215657 -0.644431 -0.465320 0.083322 0.049338 -0.307196 0.555713 -0.052525 0.245199 -0.617147 0.167180 -0.125920 0.182710 -0.178541 0.137082 -0.234176 -0.453434 0.168121 0.392256 -0.107029 0.347642 0.303804 -0.568670 0.273606 0.582694 -0.162022 -0.472933 0.313142 -0.193972 0.152559 0.432300 -1.030817 -0.319883 -0.407365 -0.712130 -0.155264 0.003391 -0.513018 -0.263096 -0.556084 0.008091 0.318737 -0.093156 -0.129413 -0.001443
drugiej -0.540966 0.346664 0.529661 0.157260 -0.948880 1.014305 0.033428 -0.544247 -1.014183 0.787099 0.160679 0.141100 -0.708892 -0.058254 -0.668037 -0.120177 0.448685 -1.058426 0.891301 -0.769711 0.139242 -0.574457 0.744384 0.869645 0.587332 -0.359123 -0.262357 -0.471019 -0.184427 0.439099 -1.191564 -0.254418 -0.000304 0.194794 0.572981 -0.610723 -0.359215 -0.288803 -0.158518 -0.669235 -0.027228 -0.229631 -0.191014 0.860204 -0.407602 0.120447 0.737494 -0.493922 0.068034 -0.854452
kandydatów -0.295976 0.006166 -0.018785 -0.101849 -0.125507 -0.180552 0.366579 0.051072 -0.135448 -0.236857 -0.440328 -0.092994 -0.191242 -0.308176 -0.384170 0.127242 0.077395 0.088875 -0.345698 -0.242694 0.133461 0.239868 -0.244507 0.286601 -0.147169 -0.249016 0.032397 0.279745 0.552219 0.204010 0.153165 -0.394200 0.054328 0.166725 0.127552 0.267656 -0.445126 -0.075962 -0.394179 -0.703056 0.398871 -0.004147 0.042446 -0.404255 -0.231713 0.271367 -0.419154 -0.098375 -0.068904 0.094377
